#provid	educ	support	resourc	student	commun	internet	connect	benefit	access	includ	inform	faculti	colleg	abl	network	servic	nation	state	institut	need	addit	award	oper	two	request	program	also	year	second	investig	unit	partial	collabor	organ	librari	locat	one	world	collect	nsf	univers	school	colleagu	per	design	result	line	staff	model	bit	manag	supercomput	scienc	propos	problem	import	pursuit	interoper	applic	campu	area	techniqu	midlevel	give	current	goal	method	gener	theori	establish	process	studi	implement	approach	number	requir	improv	technolog	algorithm	larg	throughout	data	allow	capabl	local	softwar	field	activ	perform	interest	incorpor	avail	high	analysi	effici	well	effort	interact	distribut	object	engin	exist	t1	tool	region	address	work	differ	time	pi	combin	languag	file	involv	undergradu	mani	base	thousand	nsfnet	enabl	center	structur	remot	simul	appli	fund	environ	theoret	direct	transfer	wide	expand	user	integr	reduc	test	technic	set	million	power	graduat	made	first	innov	explor	abil	specif	success	relat	behavior	compon	natur	individu	curricula	signific	increas	build	type	scientif	complet	aim	recent	make	form	hardwar	share	special	initi	enhanc	question	scale	advanc	control	focus	continu	evalu	particular	parallel	serv	practic	help	cours	limit	abstract	part	major	fast	predict	level	email	would	accur	variou	way	complex	instal	michnet	group	dynam	higher	suranet	thu	purpos	knowledg	promis	varieti	plan	class	function	task	optim	experi	opportun	determin	cost	qualiti	follow	learn	emerg	util	potenti	order	sourc	speed	fundament	north	databas	without	final	teach	produc	interfac	conduct	solut	server	within	meet	achiev	three	infrastructur	foundat	adapt	industri	particip	measur	underli	backbon	protocol	deriv	grant	describ	code	extens	factor	academ	issu	may	exploit	social	present	play	run	cooper	workshop	life	memori	procedur	methodolog	facilit	extend	common	mechan	space	obtain	challeng	updat	respons	repres	throughtout	small	chang	focu	characterist	known	florida	scheme	represent	michigan	five	multipl	central	next	consist	precis	howev	introduc	desir	sinc	togeth	train	site	mathemat	possibl	manufactur	contribut	becom	respect	southern	six	sever	captur	physic	via	public	architectur	solv	replac	role	machin	defin	secur	formal	experiment	idea	properti	constraint	basic	robot	total	reliabl	linear	effect	rang	confer	construct	variabl	degre	discuss	creat	understand	similar	minor	deliveri	realtim	hierarch	comprehens	seek	medicin	altern	modifi	depart	substanti	stage	prototyp	lead	assess	agenc	expect	commerci	domain	treatment	demonstr	concurr	permit	overal	amount	identifi	key	maintain	concept	disciplin	progress	case	citi	laboratori	graph	report	energi	select	health	product	emphasi	sponsor	rel	search	multimedia	signal	pattern	exampl	biolog	paradigm	futur	approxim	detect	treat	session	whether	critic	promot	yet	point	presenc	channel	target	built	instruct	schedul	impact	singl	highspe	contain	concern	demand	etc	devic	four	match	period	wireless	popul	medic	colorado	either	patient	examin	call	ultim	recognit	aspect	minim	intellig	systemat	green	care	condit	career	less	topic	phase	hold	handl	gain	uniqu	human	council	forum	framework	multidisciplinari	list	essenti	speech	member	committe	sophist	curriculum	begin	reduct	estim	must	river	logic	semant	symbol	basi	valu	bring	sequenc	eg	intern	divis	mo	spring	often	real	valid	exchang	start	size	popular	midwest	alloc	carri	fact	main	circuit	peopl	deliv	featur	given	densiti	worldwid	feder	averag	indian	temporari	anticip	kentucki	associ	earli	deal	imag	even	held	platform	coordin	close	much	could	diagnosi	execut	kbp	low	independ	rate	frequent	tennesse	york	significantli	cluster	capac	therapi	discret	lab	due	flexibl	district	node	draw	ar	enorm	ensur	highli	director	materi	finit	handson	assist	fix	event	find	found	like	nevada	offer	last	jointli	tradit	actual	tissu	william	document	beyond	directori	prepar	carolina	aid	econom	guid	fit	deploy	third	joint	web	team	input	depend	video	arbor	strategi	store	reason	relev	counti	appropri	widelyus	evolut	random	clinic	occur	ai	highperform	extrem	manipul	across	stream	onlin	outreach	modul	analyz	workstat	synthet	specifi	digit	calcul	mode	dissemin	affect	modern	take	ie	autom	unifi	objectori	psycholog	inquiri	great	good	error	specialti	true	sociolog	aris	numer	discoveri	gather	host	verif	commiss	sector	iter	previous	indic	respond	might	spatial	yield	decad	sampl	prior	correct	phillip	especi	avoid	rapid	link	awar	compil	separ	encourag	broad	tradeoff	vari	conserv	client	monitor	infinit	ii	k12	alreadi	faster	mentor	resolv	exhibit	situat	hospit	behalf	motiv	boulder	western	index	express	standard	telemedicin	largescal	classic	foster	nonlinear	littl	satisfi	richard	cycl	among	nysernet	processor	christian	switch	empir	urban	mesh	revis	tune	quantit	consid	perturb	fault	term	realist	transit	frequenc	booth	expert	regularli	stand	pass	incept	view	write	mean	directli	increment	junior	travel	transform	kind	electron	format	molecular	doubl	skill	consum	testb	observ	clarifi	decis	day	minimum	suggest	afford	stimul	principl	sensor	deaf	record	atm	perman	centr	moor	preliminari	incid	geometr	infer	net	analyt	summer	surgeri	competit	la	tumor	therapeut	attract	realiz	ct	guarante	invit	topolog	increasingli	render	preplan	boundari	thrust	imageguid	least	irregular	intend	programm	south	mobil	compet	character	consult	ground	prevent	scalabl	cognit	acquisit	lan	ratio	workload	accuraci	multiprocessor	neural	unif	compar	artifici	vision	statist	turn	multicomput	coupl	particularli	weak	advantag	typic	flow	heurist	liver	map	posit	dna	automat	contact	place	costli	optic	bridg	regist	divers	invas	difficult	shape	subsequ	attent	collis	soft	simultan	go	span	caus	anderson	person	around	lesion	whose	better	interconnect	gap
0.017743	0.022598	0.010826	0.001267	0.010303	0.029438	0.000655	0.000026	0.000008	0.015657	0.031601	-0.000028	0.002594	0.016947	0.000021	0.000020	0.000097	-0.000108	0.000010	0.000143	-0.000019	0.010770	0.000003	0.000161	0.000001	0.000022	0.003694	0.000761	0.001755	0.000337	0.000887	-0.000007	0.003850	0.003802	-0.000009	0.019187	0.000012	0.019432	0.000003	-0.000011	-0.000012	0.004983	0.022571	0.000008	-0.000013	0.000019	-0.000005	0.000048	-0.000006	-0.000199	0.000033	-0.000005	0.000323	0.000015	0.000252	0.000280	0.000005	0.001657	0.000011	0.002738	-0.000004	-0.000010	-0.000001	0.000013	-0.000071	0.000003	0.000012	0.000018	-0.000010	0.000077	-0.000080	-0.000001	0.000013	0.000011	-0.000009	0.000011	0.000085	0.000012	-0.000165	0.000156	-0.000029	-0.000000	0.000015	-0.000006	-0.000281	0.000106	-0.000016	-0.000033	0.000003	0.000013	-0.000006	0.000836	-0.000018	0.000121	-0.000010	0.005975	-0.000008	0.000014	-0.000082	-0.000019	-0.000002	0.000011	0.000037	-0.000126	-0.000123	0.009404	0.000004	-0.000001	-0.000009	-0.000161	0.000008	0.000005	0.000042	-0.000153	-0.000056	0.008250	0.000041	-0.000060	-0.000539	0.000851	0.000001	0.000035	-0.000001	-0.000007	0.000058	0.000002	0.000088	0.000036	0.000015	0.000010	-0.000009	0.000209	0.000072	-0.000004	-0.000008	0.000034	0.000017	-0.000005	-0.000358	0.000052	0.000019	0.000350	-0.000002	0.000050	-0.000047	0.000232	0.000119	-0.000031	-0.000032	-0.000502	-0.000173	0.000032	0.000052	-0.000680	-0.000036	-0.000015	0.000028	-0.000008	0.001982	0.000009	0.000057	0.000147	-0.000076	0.000002	-0.000042	-0.000005	-0.000026	-0.000195	0.000063	-0.000112	0.000919	-0.000134	0.000053	-0.000000	-0.000019	0.000067	-0.000027	-0.000001	0.000026	-0.000033	0.000043	-0.000012	0.000253	-0.000018	-0.000002	-0.000010	0.000029	0.000011	0.000012	0.000046	0.000037	0.000327	-0.000363	0.000037	0.000016	-0.000019	-0.000205	0.000019	-0.000031	0.000271	-0.000205	-0.000011	-0.000024	-0.000205	0.000019	-0.000188	0.000061	-0.000171	-0.000541	0.000189	0.000006	0.000004	-0.000020	0.000063	-0.000059	0.000074	0.000233	0.003475	-0.000189	-0.000158	-0.000381	0.000633	0.000000	-0.000118	0.000881	0.000200	0.000026	0.001512	-0.000079	0.000587	-0.000306	0.000009	0.000008	0.001068	0.000045	-0.000096	-0.000101	-0.000040	0.000307	-0.000018	-0.000438	0.000018	-0.000035	-0.000036	0.002961	0.001601	0.000127	0.000070	0.000178	0.001601	-0.000406	0.001601	-0.000303	0.000204	-0.000771	0.000381	0.000021	0.000323	0.025793	0.001114	-0.001366	0.001601	0.001601	-0.000009	-0.001366	0.001601	0.000096	0.001601	0.000010	-0.000570	-0.000274	0.001601	0.001601	0.000263	0.001601	0.000010	-0.000164	0.000316	0.001601	0.000144	0.001601	-0.001366	0.001601	-0.002080	-0.000392	-0.000160	-0.000068	0.002459	-0.001604	-0.001394	-0.001604	0.000206	-0.000392	-0.001604	-0.001604	-0.001604	-0.001604	0.000431	-0.000025	0.000000	-0.001407	-0.001197	-0.001604	-0.000084	-0.001407	-0.001604	0.000431	-0.001394	0.007459	-0.000135	0.000010	-0.001604	-0.001604	-0.000114	0.000019	-0.000076	-0.001604	-0.000014	-0.001604	-0.001604	-0.001604	0.000143	-0.001604	0.000102	-0.000077	-0.001604	-0.000077	-0.000234	-0.000184	-0.000062	-0.000602	0.000594	-0.000881	-0.000881	-0.000184	0.000181	-0.000358	-0.000167	-0.000134	0.000166	-0.001225	-0.000167	0.000166	0.000010	0.000202	0.000060	0.000200	-0.000184	0.000060	0.000200	-0.000134	0.000181	-0.000202	-0.000043	0.000162	0.000061	0.000140	0.000011	0.000181	0.000166	0.000181	-0.000118	0.000166	0.000162	-0.000881	-0.000358	0.022386	0.000020	0.000289	-0.000009	0.000181	-0.000134	0.000067	-0.000184	0.000179	-0.000358	-0.000105	-0.000487	0.000142	-0.000053	0.000200	-0.000881	-0.000340	0.036965	0.000150	-0.000150	0.009160	0.009160	0.000142	0.022133	-0.000085	0.000293	0.000060	-0.000085	-0.000863	-0.000115	0.000055	0.000055	0.000055	-0.000119	-0.000177	0.000055	0.000055	0.014122	-0.000115	0.000055	0.000203	0.000055	0.000061	0.000055	0.000055	0.000055	0.000055	0.000017	0.000055	0.000055	-0.000724	0.000055	-0.000209	0.009222	0.000061	-0.000065	0.000009	0.000055	0.000055	0.000061	0.000055	-0.000002	-0.000005	-0.000177	0.000055	0.000055	0.000055	0.000072	0.000055	-0.000093	-0.000119	0.000174	0.000055	-0.000119	0.000021	0.000170	0.000055	-0.000126	-0.000126	-0.000126	-0.000126	0.005081	-0.000126	-0.000126	0.000086	0.000174	0.000055	-0.000126	0.000061	0.000055	0.000055	0.000055	-0.000177	-0.000010	0.000072	0.000055	0.000055	0.000055	0.000055	-0.000177	0.000055	0.000055	-0.000209	0.000055	-0.000177	0.000055	0.000055	0.000055	-0.000209	0.000056	0.000019	-0.000176	0.000056	0.000056	0.000056	-0.000114	0.000062	0.000056	0.000061	-0.000012	0.000056	0.000056	0.000056	0.000056	0.000056	-0.000012	-0.000012	0.000056	0.000056	-0.000012	0.000056	-0.000012	0.000056	0.000059	0.000056	0.000056	0.000056	0.000002	0.000056	0.000061	0.000056	-0.000176	0.000035	0.000056	0.000056	0.000052	-0.000002	0.000056	-0.000109	0.000056	0.000010	0.000056	-0.000005	0.000056	0.000029	0.000056	0.000056	0.000032	0.000033	0.000056	0.000056	0.000056	0.000000	0.000056	0.000035	0.000062	-0.000007	-0.000176	0.000056	0.000056	0.000056	-0.000114	0.000056	-0.000176	-0.000114	0.000029	0.000056	0.000021	0.000056	0.000032	-0.000114	0.000032	0.000056	0.000056	-0.000089	0.000018	0.000056	-0.000018	0.000056	-0.000092	0.000056	-0.000092	0.000018	-0.000119	-0.000018	0.000056	0.000019	-0.000018	0.000061	-0.000001	0.000056	-0.000023	0.000056	-0.000092	-0.000119	0.000056	0.000056	-0.000043	0.000056	-0.000003	0.000061	0.000087	0.000056	0.000056	0.000020	0.000056	0.000056	0.000056	0.000056	0.000061	-0.000119	0.000796	0.000056	0.000056	0.000056	0.000056	0.000056	0.000151	0.000056	0.000056	0.000062	0.000056	-0.000001	-0.000006	0.000003	0.000061	0.000008	0.000003	0.000012	0.000012	0.000003	-0.000012	0.000012	0.000012	0.000007	0.000012	0.000006	-0.000012	-0.000012	0.000026	-0.000012	0.000019	0.000012	-0.000010	-0.000012	0.000009	-0.000001	-0.000015	-0.000012	0.000002	-0.000012	0.000002	-0.000001	-0.000009	-0.000012	0.000009	-0.000012	-0.000012	-0.000000	-0.000012	0.000013	-0.000015	-0.000012	-0.000012	-0.000012	-0.000012	-0.000012	-0.000012	-0.000012	-0.000012	0.000009	-0.000012	0.000009	-0.000012	0.000006	0.000080	0.000015	-0.000012	0.000160	0.000008	0.000008	-0.000012	0.000008	0.000008	-0.000011	-0.000012	-0.000012	-0.000012	-0.000012	-0.000012	-0.000012	-0.000012	-0.000012	-0.000012	-0.000007	0.000009	-0.000012	-0.000012	-0.000012	0.000009	-0.000012	-0.000012	-0.000115	-0.000010	0.000008	-0.000012	0.000009	-0.000012	0.000008	-0.000012	-0.000012	0.000006	0.000009	0.000001	-0.000016	0.000012	0.000012	0.000012	0.000008	-0.000007	-0.000012	-0.000012	0.000009	0.000009	0.007349	0.000009	0.000026	0.000007	-0.000012	0.000006	0.000008	-0.000012	-0.000012	-0.000012	0.000009	-0.000010	-0.000012	-0.000012	0.000006	-0.000012	-0.000012	-0.000012	0.000004	-0.000012	-0.000012	-0.000012	0.000004	0.000009	-0.000012	0.000004	0.000004	0.000004	-0.000012	0.000012	0.000009	-0.000012	0.000008	-0.000012	0.000008	0.000008	-0.000012	-0.000012	0.000008	0.000008	-0.000015	0.001010	0.000008	0.000009	-0.000012	-0.000012	-0.000012	0.000008	0.000008	-0.000012	0.000017	0.000008	-0.000012	0.000006	-0.000012	-0.000014	0.000009	0.000009	-0.000012	-0.000012	-0.000012	0.000009	0.000012	-0.000012	0.000009	-0.000012	0.000008	-0.000012	-0.000012	-0.000012	0.000008	0.000008	0.000008	-0.000012	-0.000012	-0.000012	-0.000012	-0.000011	-0.000012	0.000008	0.000003	-0.000007	-0.000012	0.000006	-0.000012	-0.000016	0.000008	-0.000012	-0.000012	0.000009	0.000003	-0.000012	0.000017	0.000008	-0.000014	-0.000012	0.000008	-0.000000	0.000008	0.000006	-0.000012	0.000009	-0.000016	0.000007	0.000008	0.000008	0.000009	-0.000014	-0.000012	0.000008	0.000017	0.000017	0.000008	0.000006	-0.000015	-0.000015	-0.000012
-0.000016	0.000002	-0.000008	-0.000013	0.000011	0.013635	-0.000001	-0.000001	-0.000001	0.000014	-0.000011	-0.000068	-0.000012	-0.000008	-0.000013	-0.000018	-0.000036	0.000061	-0.000001	0.002116	0.000014	0.000007	0.000125	0.000076	0.000016	-0.000007	-0.000018	0.000164	0.000053	-0.000719	-0.000297	-0.000020	0.000032	0.013673	-0.000002	-0.000009	-0.000005	-0.001016	-0.000009	0.000009	0.000010	-0.000001	-0.000020	0.000013	0.000226	-0.000012	0.000017	0.000011	0.000004	0.000026	0.000064	-0.000020	0.000016	-0.002515	-0.000101	-0.000015	0.000004	0.000004	-0.004664	-0.000005	-0.005614	0.000001	0.000011	-0.007087	0.000019	-0.000014	0.001767	-0.000009	0.000015	-0.000019	-0.000126	-0.000002	-0.000019	0.002670	0.000017	-0.000003	0.010403	-0.000000	0.000123	0.000012	-0.000058	-0.000000	-0.000031	-0.000029	0.000494	-0.000022	0.000009	-0.000062	0.000017	0.000011	0.000011	0.000394	0.000008	-0.000069	-0.000004	-0.000014	0.000008	-0.000003	0.009239	-0.000001	0.002073	-0.000011	0.000026	0.000007	-0.000171	0.000000	-0.000044	-0.000018	-0.000014	-0.000139	-0.000019	0.000011	0.000004	0.000350	0.000025	-0.000000	0.000034	-0.000011	-0.000626	-0.000000	0.000017	-0.000024	0.000007	-0.000009	-0.000059	-0.000009	-0.000007	0.000005	0.000006	-0.000003	0.000016	0.000100	0.000020	0.000016	-0.000068	0.000054	-0.000015	-0.000007	0.000294	-0.000105	-0.000016	-0.000633	0.000287	0.000010	0.000029	0.000305	-0.000017	-0.000058	-0.000020	-0.000313	0.000012	-0.000016	0.000022	0.000685	-0.000109	-0.000034	-0.000006	0.000018	0.000008	-0.000009	-0.000004	0.000149	0.000136	0.000063	-0.000048	-0.000003	-0.000058	0.000295	0.000033	-0.000074	0.000479	-0.000109	0.000030	-0.000018	0.000060	0.000108	0.000024	-0.000011	-0.000063	-0.000033	0.000028	-0.000011	-0.000012	0.000019	0.000063	0.000018	-0.000024	0.000008	-0.000012	0.000039	0.000042	0.000010	0.000063	0.000045	-0.000010	-0.000014	0.000198	0.000003	-0.000065	-0.000046	0.000198	-0.000020	0.000059	-0.000162	0.000001	0.000179	-0.000031	0.000106	0.000162	-0.000147	0.000005	-0.000014	-0.000007	-0.000203	-0.000082	0.000025	0.000032	0.000088	-0.000535	0.000210	0.000565	-0.000323	-0.000077	-0.000106	0.000385	-0.000187	0.000058	-0.001541	0.000138	-0.000595	-0.000474	0.000008	0.000003	0.000073	0.000504	-0.000548	-0.000017	0.000053	-0.001602	0.000001	-0.000437	0.001744	0.000170	-0.000048	0.001143	-0.000318	0.002137	-0.000092	-0.000086	0.002367	0.000680	0.002284	0.001918	0.000737	-0.001486	-0.000201	-0.000152	0.000168	-0.000113	0.001881	0.001684	0.002170	-0.000514	0.000360	0.001684	0.002170	-0.000126	0.002170	0.000103	0.000676	0.000535	-0.002230	-0.000055	-0.000290	-0.000514	-0.000006	0.000398	0.000560	0.002170	-0.000204	0.002104	0.000629	-0.000980	-0.001000	0.000544	0.000123	0.000179	-0.001000	-0.000607	0.001280	-0.000808	0.000058	0.000011	-0.001000	-0.001000	-0.000309	0.000361	0.000422	-0.000213	0.000159	0.001430	0.001280	0.001206	-0.000126	-0.001000	0.001324	0.000597	0.001476	-0.000158	-0.000040	0.000005	-0.000729	-0.000541	0.000117	-0.000006	-0.000213	0.001970	0.000001	-0.000926	0.000361	0.000632	0.000106	-0.001000	0.000123	0.000202	-0.000435	0.000202	-0.001745	-0.000057	0.000030	-0.000151	-0.000192	0.000825	-0.000208	0.000047	0.000042	-0.000208	0.000025	-0.000048	-0.000064	-0.000525	0.000040	0.000030	0.000099	-0.000032	0.000193	0.000053	0.000047	-0.000172	-0.000006	-0.000007	-0.000025	-0.000016	0.000007	-0.000156	0.000092	-0.000082	-0.000017	-0.000025	0.008548	0.000027	-0.000032	-0.000064	-0.000029	0.000347	-0.000086	0.000011	0.000120	0.000021	-0.000016	-0.000025	0.000042	-0.000181	0.000047	0.000131	0.002069	0.000205	0.000842	0.000173	-0.000025	0.000214	-0.000047	-0.000208	0.004093	0.000097	-0.000065	-0.000168	-0.000051	-0.000062	-0.000075	0.000842	-0.000125	0.000223	-0.000419	-0.000208	-0.000130	-0.000172	0.000146	0.000146	0.000103	0.000188	0.000149	0.000146	0.000932	0.000146	0.000188	-0.000084	0.000146	0.000229	0.000173	0.000146	-0.000172	0.000188	0.000932	-0.000172	0.000146	0.000135	0.000146	0.004426	0.000238	0.000152	-0.000084	-0.000061	0.000146	0.000146	0.000146	0.000164	0.000006	-0.000037	0.000146	0.000146	0.000146	0.000149	0.000151	-0.000172	-0.000172	0.000103	0.000146	-0.000016	0.000079	-0.000042	0.000144	-0.000172	-0.000035	-0.000062	-0.000035	-0.000035	-0.000035	-0.000035	-0.000035	0.000103	0.000146	0.000146	-0.000035	0.000149	-0.000029	0.000152	0.000146	0.000146	0.004783	0.000151	0.000149	0.000149	0.000146	0.000188	0.000146	0.000146	-0.000172	-0.000069	0.000146	0.000146	0.000146	0.000169	-0.000172	0.001996	0.000147	0.000018	0.000097	0.000070	-0.000171	0.000147	0.000147	-0.000052	0.000150	-0.000003	-0.000002	0.000147	0.000147	0.000158	0.000147	0.000124	-0.000002	-0.000002	0.000147	0.000147	-0.000002	0.000013	-0.000002	0.000158	0.000024	0.000147	0.000147	0.000147	0.000001	0.000165	0.000147	0.000147	0.000147	-0.000028	0.000147	0.000147	0.000147	-0.000001	0.000147	0.000153	-0.000171	-0.000187	0.000147	0.000011	0.000165	-0.000033	0.000147	0.000147	-0.000030	-0.000033	0.000147	0.000147	0.000147	0.000014	0.000147	-0.000027	0.000021	-0.000017	0.000147	0.000097	0.000147	0.000147	0.000147	-0.000168	0.000153	0.000150	-0.000033	0.000147	-0.000006	0.000147	-0.000030	0.000147	-0.000030	0.000147	0.000147	0.000147	0.000003	0.000153	0.000006	0.000147	0.000147	0.000147	0.000147	-0.000010	0.000103	-0.000005	0.000174	0.000019	-0.000005	0.000147	0.000013	-0.000166	0.000044	0.000170	-0.000168	0.000103	0.000147	0.000174	0.000001	0.000147	-0.000010	0.000147	0.000053	0.000147	0.000153	0.000019	-0.000057	-0.000130	0.000189	0.000147	-0.000171	-0.000100	-0.000162	0.000147	0.000147	-0.000039	0.000192	0.000147	-0.000030	0.000097	-0.000171	-0.000052	0.000147	-0.000015	-0.000010	0.000002	0.000147	-0.000019	-0.000007	0.000011	0.000011	-0.000013	0.000000	0.000011	0.000011	-0.000019	0.000011	-0.000001	0.000000	-0.000001	-0.000005	-0.000001	0.000019	0.000011	0.000002	-0.000001	0.000000	-0.000001	-0.000012	0.000000	0.000006	0.000000	-0.000007	0.000009	0.000000	0.000000	0.000003	0.000000	0.000000	-0.000010	-0.000001	0.000005	0.000008	0.000000	0.000000	0.000000	-0.000001	0.000000	0.000000	-0.000001	0.000000	0.000011	0.000000	-0.000018	0.000000	-0.000004	-0.000009	0.000000	0.000000	0.000018	0.000001	0.000001	0.000000	0.000001	0.000001	0.000001	0.000000	0.000000	0.000000	0.000013	-0.000007	0.000000	0.000000	0.000000	0.000000	0.000000	-0.000018	0.000000	0.000000	0.000000	0.000002	0.000013	0.000000	0.000044	0.000002	-0.000013	0.000000	-0.000005	0.000000	0.000008	0.000000	0.000006	-0.000015	-0.000002	-0.000010	-0.000016	0.000011	0.000011	0.000011	0.000012	0.000000	0.000004	0.000000	0.000008	-0.000018	0.000008	0.000003	-0.000005	-0.000017	0.000000	0.000006	-0.000007	0.000000	0.000000	0.000000	-0.000002	0.000002	-0.000001	0.000000	0.000019	0.000006	0.000000	0.000000	0.000015	0.000000	0.000003	0.000000	0.000015	0.000000	0.000013	0.000015	0.000015	0.000015	0.000006	0.000019	-0.000018	0.000000	-0.000014	0.000000	-0.000010	-0.000019	0.000006	0.000000	-0.000019	-0.000019	-0.000002	-0.000021	-0.000019	-0.000003	0.000000	0.000000	0.000008	-0.000019	-0.000019	0.000000	0.000000	-0.000019	0.000000	0.000018	0.000000	-0.000001	0.000003	-0.000002	0.000006	0.000003	0.000000	-0.000018	0.000019	0.000000	-0.000018	0.000000	-0.000010	0.000000	0.000000	0.000000	-0.000001	-0.000019	-0.000019	0.000000	0.000000	0.000000	0.000000	0.000001	0.000000	0.000008	-0.000018	0.000000	0.000000	-0.000019	0.000000	-0.000003	-0.000019	0.000003	0.000000	-0.000018	-0.000007	0.000002	0.000000	-0.000019	-0.000002	0.000000	-0.000019	-0.000001	-0.000019	-0.000019	0.000000	-0.000018	-0.000002	-0.000018	-0.000019	-0.000019	-0.000009	-0.000002	0.000000	-0.000019	0.000000	0.000000	-0.000019	0.000019	-0.000015	-0.000002	0.000000
0.000019	0.000015	-0.000012	0.000016	-0.000002	0.000003	-0.000002	-0.000014	-0.000005	-0.000019	0.000017	0.000015	0.000009	0.000002	-0.000009	0.000011	-0.000050	0.000172	0.000017	0.000111	-0.000017	-0.001029	-0.000492	0.000109	-0.000005	-0.000004	-0.007826	-0.000550	-0.000002	0.000757	-0.000431	0.000013	-0.001276	-0.003970	-0.000020	0.000036	0.000019	-0.003872	0.000009	0.000004	-0.000001	0.000969	-0.004848	-0.003064	-0.000014	-0.002370	0.000007	-0.007097	-0.000000	0.000219	0.000154	-0.000001	-0.005257	-0.004684	-0.000047	-0.000999	-0.007301	-0.005351	0.000893	0.000014	-0.001341	-0.004626	-0.003846	-0.001024	-0.000178	-0.000007	-0.003481	-0.004099	-0.000015	0.000007	-0.000169	-0.000006	0.000013	0.000005	-0.000003	-0.000009	0.000013	-0.000003	0.000191	0.000010	0.000053	0.000017	-0.000004	-0.000048	-0.000028	0.000277	-0.000019	-0.000065	-0.004894	0.000010	0.000011	0.000102	-0.004688	-0.000054	-0.000001	0.000000	0.000010	-0.001958	-0.000082	-0.000006	-0.001608	-0.000016	0.000058	-0.000119	0.000192	-0.000002	-0.000055	-0.000003	0.000023	-0.000087	0.000002	0.000006	-0.000036	0.000202	-0.000003	-0.000026	0.000060	-0.000019	0.000076	-0.000003	-0.000035	0.000016	0.000001	0.000004	0.000063	0.000014	0.000021	-0.000011	-0.000004	0.000019	0.000008	0.000068	-0.000002	0.000010	0.000115	0.000013	0.000004	-0.000017	-0.000338	0.000134	0.000001	-0.000618	0.000063	-0.000048	0.000044	0.000688	-0.000003	-0.000041	0.000048	0.000448	0.000210	0.000018	-0.000004	0.000271	-0.000069	-0.000066	-0.000044	0.000025	-0.000018	0.000015	0.000043	-0.000081	0.000038	0.000070	0.000052	-0.000010	0.000021	-0.000251	-0.000012	0.000106	-0.000704	-0.000147	0.000087	0.000010	-0.000025	-0.000198	0.000047	-0.000017	0.000040	0.000017	-0.000041	0.000013	0.000011	0.000012	0.000028	0.000003	0.000002	-0.000019	0.000004	0.000051	0.000016	0.000005	0.000317	-0.000115	-0.000010	0.000006	-0.000075	-0.005090	-0.000066	0.000045	-0.000075	0.000019	0.000062	-0.000115	-0.000001	0.000167	-0.000001	0.000416	-0.000115	-0.000038	0.000006	0.000002	0.000015	0.000175	-0.000198	0.000449	0.000594	-0.002120	-0.000052	0.000108	-0.000311	0.000203	0.000095	-0.000271	0.000476	0.000056	-0.000053	-0.001160	0.000089	0.000372	-0.000027	-0.000013	-0.000022	0.002052	0.000358	0.000303	-0.000210	0.000049	0.000983	-0.000009	0.000685	0.000844	-0.000206	0.000194	-0.001814	0.002057	0.002284	-0.000114	0.000110	-0.002421	0.000404	0.000480	-0.000664	0.000882	0.002242	0.000069	-0.000074	0.000622	-0.000069	0.002057	-0.002124	0.002242	-0.001199	0.000290	0.002242	0.001942	-0.000565	0.002156	0.000036	-0.000565	0.000157	-0.002077	-0.002077	-0.000349	0.002242	0.000027	-0.000709	-0.000230	0.002242	0.000214	-0.000710	-0.002102	-0.001812	-0.001184	0.000023	-0.000067	0.000034	-0.001501	-0.001501	0.001848	0.002644	-0.000005	-0.000030	-0.001384	-0.001205	-0.000091	-0.000551	-0.000100	-0.000104	0.000057	0.000400	-0.001501	0.000348	0.000235	0.000127	0.002644	-0.000174	0.000057	0.007272	0.000057	0.000009	-0.000184	0.000719	0.000303	-0.000692	-0.000104	0.001531	-0.001438	-0.001014	-0.001184	-0.000817	0.000018	-0.000868	-0.000067	0.000089	0.000900	-0.000104	-0.000551	-0.000086	-0.000010	0.000712	0.000629	0.001364	-0.000810	-0.000124	-0.000053	-0.000844	-0.000111	-0.000045	-0.000015	-0.000716	-0.000111	-0.000178	0.000077	-0.000073	0.000006	0.000033	-0.000127	0.000122	-0.000150	0.000037	-0.000196	-0.000158	-0.000037	-0.000067	0.000046	0.000130	-0.003234	-0.000194	0.000146	-0.000041	0.000054	0.000083	0.000189	0.000725	-0.000844	-0.000069	0.000190	-0.000032	-0.000006	-0.000218	-0.000080	-0.000158	-0.000127	0.000144	-0.000810	-0.000211	-0.000844	0.000089	0.000025	-0.000150	0.000602	-0.000844	0.000029	0.000089	-0.000095	0.000062	-0.000062	-0.000019	-0.000124	-0.000844	-0.000054	0.000095	-0.001917	0.001415	0.000203	-0.000025	0.000154	0.000191	0.000164	0.000203	0.000175	0.000154	0.000001	0.000180	0.000213	0.000154	-0.000025	0.000164	-0.000140	-0.000174	-0.000035	0.000203	0.000001	0.000164	0.000164	0.000466	0.000164	0.000084	0.000084	0.000170	0.000154	0.000154	0.000164	0.000180	0.000154	-0.000193	-0.000003	-0.000040	-0.000193	0.000191	0.000154	0.000186	-0.000065	0.000191	0.000154	0.000164	0.000164	0.000213	-0.000144	0.000004	0.000213	0.000164	-0.000193	0.000154	-0.000206	0.000164	0.000054	-0.000203	-0.000035	0.000154	-0.000214	-0.000126	0.000154	0.000175	-0.000206	-0.000201	0.000164	-0.000214	0.000008	0.000154	0.000175	0.000175	0.000154	0.000203	0.000127	0.000164	-0.000206	0.000084	0.000207	-0.000193	0.000154	-0.000035	0.000164	-0.000111	0.000165	-0.000007	0.000084	0.000074	0.000165	0.000155	0.000155	0.000040	0.000176	0.000059	-0.003407	0.000165	0.000191	-0.000166	0.000155	0.000227	-0.000004	-0.003090	0.000155	0.000155	-0.003090	0.000203	-0.000008	-0.000166	0.000032	-0.000202	-0.000186	0.000138	-0.000003	-0.000192	0.000165	0.000155	-0.000202	0.000062	0.000155	0.000165	0.000155	-0.000012	0.000165	0.000160	0.000165	-0.000010	-0.000035	-0.000013	-0.000163	0.000022	0.000191	-0.000206	0.000060	0.000049	0.000165	0.000155	0.000165	-0.000017	0.000155	0.000060	0.000039	-0.001026	-0.000192	0.000165	0.000155	0.000165	-0.000192	0.000186	0.000170	0.000176	0.000022	0.000155	0.000009	0.000165	-0.000015	0.000165	0.000060	0.000155	0.000181	0.000127	0.000004	0.000170	0.000004	0.000165	0.000155	0.000165	0.000165	-0.000007	0.000165	0.000014	-0.000052	-0.000003	0.000014	0.000155	-0.000025	0.000160	0.000014	0.000155	0.000176	0.000155	0.000155	-0.000140	0.000045	0.000165	-0.000008	0.000155	0.000084	0.000165	0.000160	-0.000013	-0.000163	0.000203	-0.000208	0.000165	0.000165	0.000127	0.000171	0.000155	0.000165	-0.000174	-0.000213	0.000155	0.000060	0.000165	0.000165	0.000040	0.000155	-0.000420	-0.000449	-0.000020	0.000155	-0.001628	-0.002330	-0.002256	-0.002256	-0.002227	-0.001441	-0.002256	-0.002256	-0.001667	-0.002256	-0.001430	-0.001451	-0.001441	-0.001044	-0.001441	-0.001152	-0.002256	-0.002226	-0.001441	-0.001451	-0.000808	-0.000759	-0.001441	-0.002133	-0.001441	-0.002330	-0.002143	-0.001451	-0.001451	-0.002237	-0.001441	-0.001451	-0.001283	-0.001441	-0.001628	-0.000153	-0.001451	-0.001079	-0.001441	-0.001441	-0.001371	-0.001441	-0.001451	-0.001363	-0.002199	-0.001441	-0.001997	-0.001441	-0.001441	-0.002178	-0.001451	-0.001441	-0.002256	-0.002256	-0.002256	-0.001441	-0.002256	-0.002256	-0.001804	-0.001451	-0.001451	-0.001441	-0.001441	-0.001404	-0.001441	-0.001451	-0.001441	-0.001441	-0.001451	-0.001904	-0.001441	-0.001451	-0.001441	-0.001451	-0.001441	-0.001441	-0.000045	-0.002226	-0.001780	-0.001441	-0.001969	-0.001360	-0.001545	-0.001441	-0.001435	-0.001017	-0.002034	-0.002022	-0.000947	-0.002256	-0.002256	-0.002256	-0.001689	-0.001451	-0.001435	-0.001441	-0.001430	-0.002178	-0.002264	-0.002227	-0.000567	-0.001129	-0.001441	-0.000808	-0.001643	-0.001441	-0.001441	-0.001363	-0.002246	-0.002226	-0.001451	-0.001451	-0.001108	-0.001074	-0.001441	-0.001451	-0.003460	-0.001441	-0.001430	-0.001441	-0.003460	-0.001441	-0.001351	-0.003460	-0.003460	-0.003460	-0.001435	-0.001266	-0.002099	-0.001451	-0.001662	-0.001441	-0.001903	-0.001562	-0.001365	-0.001451	-0.001562	-0.001562	-0.000005	0.000032	-0.001562	-0.000260	-0.001069	-0.001441	-0.001419	-0.001562	-0.001562	-0.001441	-0.001441	-0.001562	-0.001451	-0.000868	-0.001451	-0.000917	-0.002227	-0.002246	-0.001435	-0.001419	-0.001374	-0.002097	-0.001266	-0.001340	-0.002060	-0.001340	-0.001724	-0.001441	-0.001451	-0.001441	-0.001606	-0.001265	-0.001588	-0.001441	-0.001451	-0.001340	-0.001451	-0.001804	-0.001340	-0.001701	-0.001903	-0.001451	-0.001441	-0.000741	-0.001451	-0.000007	-0.001562	-0.001430	-0.001441	-0.002178	-0.002330	-0.001392	-0.001451	-0.001562	-0.000143	-0.001451	-0.001562	-0.000444	-0.001562	-0.000780	-0.001441	-0.002178	-0.000010	-0.001128	-0.001562	-0.001562	-0.002049	-0.000690	-0.001441	-0.001562	-0.001451	-0.001441	-0.001562	-0.000532	-0.000185	-0.000465	-0.001371
-0.000882	-0.000004	0.000001	-0.000020	0.000003	-0.000002	-0.000004	0.000006	-0.000017	-0.000012	-0.000020	-0.000038	-0.000008	0.000013	0.000004	-0.004987	0.000052	0.000143	-0.000005	-0.000223	-0.000017	0.000001	-0.000005	-0.000197	0.015596	0.000013	0.000291	0.000193	0.008255	0.000202	0.000377	-0.000007	-0.000009	-0.000009	0.000008	0.000003	0.000014	-0.000015	-0.000000	-0.000004	0.000007	-0.000404	0.000011	-0.000008	-0.000018	0.000006	-0.000013	0.000001	-0.000002	0.000127	0.000193	0.000017	0.000020	-0.000003	0.000089	0.000006	-0.000010	-0.000005	-0.000005	0.000324	-0.004563	0.000010	0.000006	-0.003468	-0.000120	0.000012	0.000012	0.000007	0.000002	0.000001	0.000132	-0.000004	0.000023	0.000004	-0.000009	-0.000003	-0.000015	0.000003	0.000010	-0.000015	0.000028	-0.000012	-0.000014	-0.000002	-0.000213	0.000300	0.000016	-0.000041	0.000003	-0.000009	-0.000012	-0.000422	0.000016	0.000176	0.000017	0.000001	0.000012	-0.000006	-0.000097	0.000007	0.000015	-0.000005	0.000024	0.000192	-0.000011	0.000005	0.009164	-0.000018	-0.000007	0.000060	-0.000019	-0.000005	0.001030	-0.000562	-0.000063	0.000046	0.000054	-0.000010	0.000565	0.000018	0.000006	0.000048	-0.000002	-0.000012	-0.000046	-0.000007	0.000070	0.000041	-0.000013	0.000047	0.000016	0.000141	-0.000016	-0.000003	-0.000004	0.000040	0.000004	-0.000021	0.000752	-0.000131	-0.000001	0.000507	0.000738	-0.000018	-0.000176	-0.000666	0.000002	0.000003	0.000006	0.000412	0.000071	0.000011	0.000054	-0.000188	-0.000109	0.000025	0.000017	0.000036	-0.000017	0.000012	-0.000019	-0.000111	0.000155	0.000030	-0.000011	-0.000003	0.000012	-0.000228	0.000070	0.000112	-0.000007	-0.000181	0.000201	-0.000020	-0.000052	0.000035	0.000040	-0.000005	-0.000053	-0.000004	0.000020	-0.000006	0.000004	-0.000014	0.000019	-0.000018	0.000045	0.000017	-0.000004	-0.000031	-0.000008	0.000011	-0.000398	-0.000072	0.000006	-0.000017	0.000037	-0.000013	-0.000001	-0.000026	0.000037	-0.000018	-0.000059	-0.000202	0.000001	-0.000076	0.000016	0.000850	-0.000306	0.000324	-0.000008	0.000004	0.000022	-0.000127	-0.000251	-0.000241	-0.000086	-0.002275	-0.000102	-0.000103	0.000388	0.000572	-0.000083	0.000236	-0.000091	0.000014	0.000039	0.001711	0.000078	0.000671	-0.000392	0.000016	-0.000025	0.000898	-0.000224	0.000520	0.000081	-0.000019	0.001055	0.000012	-0.000201	-0.002274	-0.000190	0.000045	-0.001837	0.001191	0.001577	-0.000065	-0.000129	0.001773	0.000411	0.000593	-0.000511	0.000174	0.001577	-0.000736	0.000251	0.000427	-0.000148	0.001773	-0.002229	0.002212	0.001577	0.000592	0.001577	-0.001097	0.000012	0.001577	0.006211	-0.000719	0.000057	0.002036	0.002036	-0.000574	0.001577	-0.000064	0.000282	-0.000281	0.001577	-0.000194	-0.001424	0.001577	0.001577	0.000010	-0.000241	0.000054	0.000008	-0.001208	-0.001249	-0.000112	0.002371	-0.000016	0.000201	0.002267	-0.001208	0.000521	0.002325	0.000022	-0.000133	0.000015	0.002086	-0.001446	0.001889	-0.000128	-0.001446	-0.000831	-0.000019	-0.001446	0.000043	-0.000204	0.000017	-0.002338	-0.001184	-0.000156	-0.000018	-0.000184	-0.000112	0.000014	-0.001208	-0.001643	-0.001011	-0.000057	-0.002099	0.000117	0.000180	0.000062	0.000107	0.002325	-0.000145	0.000147	0.000647	0.000687	-0.000867	-0.000867	0.000129	-0.000212	0.001446	-0.000108	-0.000000	0.000211	0.000215	0.000180	0.000026	0.000004	0.000157	-0.000211	0.000201	0.000135	-0.000020	0.000201	-0.000052	-0.000116	-0.000108	-0.000049	0.000167	-0.000003	0.000193	-0.000000	-0.000176	-0.000120	-0.000212	0.000157	-0.000080	0.000211	0.000353	-0.000867	0.000026	0.000014	0.000201	-0.000012	-0.000209	-0.000076	-0.000090	-0.000188	-0.000048	-0.000867	0.000167	-0.000867	-0.000177	-0.000076	0.000201	-0.000867	-0.000482	0.000026	0.000126	-0.000095	0.000026	-0.000207	-0.000112	-0.000093	-0.000500	0.000177	0.000216	-0.001862	-0.000672	0.000092	0.000092	-0.000105	0.000051	0.000051	0.000092	0.000110	-0.000187	0.000012	0.000051	0.000092	0.000051	0.000092	-0.000172	0.000051	-0.000053	-0.000064	0.000092	0.034383	0.000051	-0.000053	-0.000474	0.000051	0.000003	0.000095	0.000061	-0.000164	0.000051	0.000051	-0.000164	0.000056	0.000051	-0.000017	-0.000055	0.000051	0.000051	0.000051	0.000051	-0.000156	0.000051	0.000051	0.000051	0.000051	0.000092	0.000015	-0.000017	0.000092	0.000051	0.000051	0.000051	-0.000138	0.000051	0.000003	0.000051	-0.000123	0.000051	-0.000210	0.000039	0.000051	0.000056	-0.000138	-0.000133	0.000051	-0.000210	0.000006	-0.000156	0.000051	0.000051	0.000028	0.000092	0.000051	0.000051	-0.000138	-0.000051	-0.000210	0.000051	0.000051	0.000115	0.000051	-0.000193	0.000051	0.000013	0.000205	0.000205	0.000051	0.000051	0.000051	0.000057	0.000029	0.000056	0.000015	0.000110	0.000051	0.000051	0.000051	0.000205	0.000015	0.000015	0.000051	0.000051	0.000015	0.000093	-0.000319	0.000051	0.000060	0.000051	-0.000209	0.000051	-0.000012	0.000051	0.000057	0.000051	0.000051	-0.000002	-0.000164	0.000051	-0.000027	0.000006	0.000051	0.000062	0.000051	-0.000004	0.000093	-0.000003	0.000051	-0.000008	0.000051	-0.000138	-0.000005	-0.000004	0.000110	-0.000071	0.000051	-0.000001	0.000051	-0.000002	0.000056	-0.000011	0.000051	0.000205	0.000029	0.000051	0.000051	0.000051	0.000057	0.000051	0.000023	0.000110	-0.000003	0.000051	0.000049	0.000051	-0.000005	0.000110	0.000051	0.000051	-0.000020	0.000057	-0.000004	0.000051	0.000051	0.000051	0.000051	0.000009	0.000051	-0.000004	-0.000138	0.000015	-0.000004	0.000057	-0.000001	-0.000158	-0.000007	0.000074	0.000051	0.000110	0.000051	0.000170	0.000054	0.000051	-0.000004	0.000057	0.000205	-0.000164	0.000034	0.000015	0.000051	0.000093	0.000093	0.000110	0.000057	0.000051	-0.000217	0.000110	0.000051	0.000051	0.000093	0.000029	-0.000005	0.000205	0.000051	0.000057	0.000051	0.000000	0.000018	-0.000002	0.000057	0.000005	0.000005	0.000004	0.000004	0.000005	-0.000008	0.000004	0.000004	0.000002	0.000004	-0.000018	-0.000018	-0.000008	-0.000009	-0.000018	0.000001	0.000004	0.000004	-0.000018	-0.000018	-0.000001	-0.000013	-0.000018	-0.000008	-0.000018	0.000012	0.000003	0.000002	-0.000008	0.000004	-0.000018	-0.000018	0.000002	-0.000018	0.000007	0.000018	-0.000018	-0.000016	-0.000018	-0.000018	-0.000018	-0.000018	0.000002	0.000011	-0.000001	-0.000018	0.000003	-0.000018	-0.000018	0.000003	-0.000013	-0.000001	0.000004	0.000004	0.000004	-0.000001	0.000004	0.000004	0.000003	-0.000018	-0.000018	-0.000007	-0.000018	-0.000013	-0.000018	-0.000018	-0.000018	-0.000018	-0.000013	-0.000007	-0.000018	-0.000018	-0.000018	-0.000018	-0.000018	-0.000018	-0.000137	0.000004	0.000008	-0.000018	0.000004	-0.000018	0.000005	-0.000018	-0.000013	0.000006	-0.000001	0.000003	-0.000011	0.000004	0.000004	0.000004	0.000002	-0.000013	-0.000013	-0.000018	0.000007	0.000003	-0.000008	0.000004	-0.000017	0.000001	-0.000018	0.000000	-0.000003	-0.000001	-0.000001	0.000011	0.000004	0.000004	-0.000018	-0.000001	0.000016	-0.000011	-0.000018	-0.000001	-0.000009	-0.000001	-0.000018	-0.000018	-0.000009	-0.000018	-0.000018	-0.000009	-0.000009	-0.000009	-0.000013	0.000006	0.000003	-0.000018	0.000008	-0.000018	-0.000011	0.000002	-0.000013	-0.000012	0.000002	0.000002	0.000009	0.000004	0.000002	0.000018	-0.000016	-0.000018	0.000007	0.000002	0.000002	-0.000018	-0.000018	0.000002	0.000002	0.000001	-0.000018	0.000009	0.000004	0.000004	-0.000013	-0.000018	0.000011	0.000003	0.000006	-0.000018	0.000003	-0.000018	0.000003	-0.000018	-0.000018	-0.000018	0.000002	0.000005	0.000002	-0.000018	-0.000018	-0.000018	-0.000018	0.000003	-0.000018	-0.000003	0.000003	-0.000013	-0.000018	0.000002	-0.000018	0.000018	0.000002	-0.000018	-0.000018	0.000002	0.000005	-0.000016	-0.000018	0.000002	-0.000018	-0.000018	0.000002	-0.000016	0.000002	0.000002	-0.000018	-0.000000	0.000001	0.000003	0.000002	0.000002	0.000003	0.000000	-0.000018	0.000002	-0.000008	-0.000018	0.000002	0.000003	0.000018	0.000001	-0.000018
-0.000000	-0.000012	-0.000021	-0.000003	-0.000009	0.000006	-0.000018	0.000008	0.000003	-0.000018	-0.000024	0.000053	-0.000004	0.000013	0.000014	-0.000010	-0.000024	-0.000190	-0.000005	-0.000047	-0.000010	-0.000021	0.000010	0.000143	-0.000016	-0.000009	0.000004	-0.000178	-0.000003	-0.000333	-0.000560	-0.000015	0.000000	0.000001	0.000012	0.000057	0.000019	-0.000008	0.000019	0.000014	0.000003	-0.000010	0.000012	-0.000042	-0.000014	-0.000002	-0.000006	-0.000012	-0.000003	-0.000048	0.000114	-0.000021	0.000012	-0.000005	0.000031	-0.000006	-0.000006	-0.000008	0.000017	0.000000	0.000003	0.000009	-0.000020	0.000014	-0.000195	0.000009	0.000017	-0.000002	-0.000162	-0.000003	-0.000157	0.000016	0.000014	0.000002	0.000007	-0.000002	-0.000008	0.000013	-0.000006	-0.000005	-0.000024	0.000007	-0.000009	0.000014	-0.000248	0.000296	0.000010	0.000013	0.000009	0.000008	0.000008	0.000043	-0.000006	-0.000032	-0.000006	0.000018	0.000002	0.000001	0.000107	-0.000016	0.000009	-0.000001	0.000049	-0.000186	0.000013	-0.000004	0.000051	-0.000015	0.000014	0.000065	0.000007	0.000005	-0.000043	0.000335	-0.000032	-0.000059	-0.000021	-0.000026	0.000677	0.000007	-0.000060	0.000019	0.000009	0.000013	0.000054	-0.000002	0.000064	0.000029	-0.000005	0.000041	0.000012	0.000148	-0.000007	-0.000013	0.000077	-0.000065	-0.000017	0.000010	0.000484	0.000026	-0.000000	0.000355	0.000026	-0.000014	0.000078	0.000226	0.000009	0.000010	0.000013	0.000355	-0.000095	0.000004	-0.000065	0.000185	-0.000019	-0.000045	0.000023	0.000031	-0.000011	-0.000013	0.000006	0.000030	0.000147	-0.000004	0.000023	-0.000007	0.000008	0.000221	-0.000058	0.000035	-0.000698	0.000092	0.000198	-0.000008	0.000048	0.000018	-0.000063	-0.000012	0.000046	-0.000036	0.000033	-0.000002	0.000003	0.000000	0.000022	-0.000018	0.000030	-0.000012	-0.000016	0.000048	0.000010	0.000019	-0.000116	-0.000124	0.000000	0.000004	0.000117	-0.000010	-0.000028	-0.000012	0.000117	0.000004	-0.000007	0.000061	-0.000007	0.000120	0.000025	0.000456	0.000274	0.000122	0.000014	-0.000011	-0.000002	0.000056	0.000124	0.000129	0.000132	0.001620	0.000481	0.000084	0.000686	0.000501	-0.000016	0.000228	0.000568	0.000157	0.000055	0.001620	-0.000010	0.000027	0.000578	0.000018	-0.000023	0.001620	0.000690	0.000420	-0.000005	-0.000066	0.002013	0.000003	0.000708	0.002013	0.000210	-0.000156	0.001620	0.002102	-0.002364	-0.000034	-0.000054	-0.002162	0.000417	0.002102	-0.002001	-0.000651	0.001714	-0.000647	-0.000090	-0.000656	-0.000074	-0.002122	-0.002162	0.002102	0.001674	-0.000173	0.002102	0.002102	-0.000154	-0.002162	0.000163	0.000565	-0.000040	0.002102	0.002102	-0.000417	-0.002162	0.000040	0.000198	0.000714	0.002102	-0.000175	-0.001707	0.002102	-0.002162	-0.001229	-0.000222	0.000135	0.000094	-0.001229	0.000401	0.001383	0.001737	-0.000109	-0.000222	-0.001229	-0.001229	0.001737	-0.001229	-0.000222	0.000105	-0.000089	-0.001229	0.001383	-0.001229	0.000284	-0.001229	0.001737	-0.000154	0.001979	-0.000025	0.000045	-0.000008	-0.001229	0.001241	0.000257	0.000003	-0.000220	0.001241	0.000008	-0.001229	-0.001229	-0.001229	-0.000136	-0.001229	-0.000121	-0.000220	0.001737	-0.000220	-0.001229	0.000073	0.000186	-0.000534	-0.000587	-0.000602	0.001868	0.000073	0.000009	-0.000602	0.000175	0.000117	0.000110	-0.000602	0.000156	0.000123	-0.000191	0.000132	0.000012	0.000025	0.000073	0.000012	0.000025	0.000117	0.000009	-0.000078	0.000010	-0.000008	-0.000178	-0.000043	-0.000011	0.000009	-0.000079	0.000054	0.000132	0.000110	-0.000008	-0.000602	-0.000533	-0.000079	-0.000181	0.000025	-0.000010	0.000009	0.000186	-0.000147	0.000073	0.000045	-0.000602	-0.000015	-0.000107	-0.000087	0.000009	0.000025	0.001868	-0.000602	0.001376	-0.000148	0.000103	0.000109	0.000109	-0.000025	-0.000148	-0.000602	0.000088	0.000012	0.001806	-0.000602	-0.000148	-0.000148	-0.000148	-0.000148	-0.000148	-0.000138	-0.000148	-0.000148	-0.000014	-0.000148	-0.000148	-0.000058	-0.000148	-0.000148	-0.000095	0.000082	-0.000148	-0.000148	-0.000014	-0.000148	0.000082	-0.000460	-0.000148	0.000162	0.000162	-0.000148	-0.000058	-0.000148	-0.000148	-0.000148	-0.000148	-0.000148	-0.000015	0.000029	-0.000138	-0.000148	-0.000148	-0.000148	-0.000127	-0.000148	-0.000148	-0.000148	-0.000148	-0.000148	-0.000084	0.000025	-0.000148	-0.000148	-0.000008	-0.000008	-0.000008	-0.000008	0.000029	-0.000008	-0.000008	-0.000138	-0.000148	-0.000148	-0.000008	-0.000148	-0.000140	-0.000148	-0.000095	-0.000084	-0.000003	-0.000127	-0.000148	-0.000148	0.000082	0.000082	-0.000138	-0.000148	-0.000148	0.000162	-0.000148	-0.000138	-0.000148	-0.000002	-0.000148	0.019742	-0.000148	0.000004	-0.000073	-0.000083	-0.000148	-0.000148	0.000083	-0.000011	0.000083	-0.000012	-0.000011	-0.000148	-0.000148	-0.000148	-0.000148	-0.000083	-0.000004	-0.000004	-0.000148	-0.000148	-0.000004	-0.000139	-0.000004	-0.000148	-0.000014	0.000083	-0.000148	-0.000148	0.000008	-0.000148	-0.000148	-0.000148	0.000094	0.000037	-0.000148	-0.000094	-0.000148	-0.000001	-0.000148	-0.000148	-0.000148	0.000004	-0.000148	-0.000002	-0.000148	0.000032	-0.000148	-0.000148	0.000035	0.000036	-0.000148	-0.000148	-0.000148	0.000009	-0.000148	0.000037	0.000043	-0.000005	-0.000137	-0.000083	-0.000148	-0.000148	-0.000148	-0.000148	-0.000137	0.000083	0.000045	-0.000148	0.000007	-0.000148	0.000035	-0.000148	0.000035	-0.000148	-0.000148	-0.000148	-0.000020	-0.000148	-0.000001	-0.000148	-0.000148	-0.000148	-0.000148	-0.000004	-0.000148	-0.000001	-0.000148	-0.000014	-0.000001	-0.000148	-0.000001	-0.000148	0.000033	-0.000001	-0.000148	-0.000148	-0.000148	-0.000148	0.000062	-0.000148	-0.000010	-0.000148	-0.000073	-0.000148	-0.000148	-0.000014	-0.000148	-0.000148	-0.000148	-0.000148	-0.000148	-0.000148	0.000065	-0.000148	-0.000148	-0.000148	-0.000148	-0.000148	0.000035	-0.000083	-0.000148	-0.000011	-0.000148	0.000000	-0.000004	0.000009	-0.000148	-0.000014	0.000014	-0.000004	-0.000004	0.000014	0.000009	-0.000004	-0.000004	-0.000004	-0.000004	0.000004	0.000010	0.000004	0.000003	0.000004	-0.000016	-0.000004	0.000006	0.000009	0.000004	0.000014	-0.000001	0.000004	0.000003	0.000004	0.000003	-0.000003	0.000015	0.000004	-0.000014	0.000004	0.000004	0.000000	0.000004	-0.000015	0.000002	0.000004	0.000004	0.000004	0.000004	0.000004	0.000004	0.000004	0.000004	0.000004	0.000004	-0.000014	0.000009	0.000009	-0.000006	0.000004	0.000004	-0.000003	-0.000015	-0.000015	0.000004	-0.000015	-0.000015	0.000005	0.000004	0.000004	0.000004	0.000004	0.000004	0.000004	0.000004	0.000004	0.000004	0.000004	-0.000014	0.000004	0.000004	0.000004	0.000004	0.000004	0.000004	0.000152	0.000006	-0.000015	0.000004	0.000012	0.000004	-0.000002	0.000004	0.000004	-0.000016	0.000005	-0.000018	0.000005	-0.000004	-0.000004	-0.000004	-0.000016	0.000004	0.000004	0.000004	0.000004	-0.000014	-0.000010	-0.000014	0.000003	-0.000016	0.000004	-0.000017	-0.000015	0.000004	0.000004	0.000004	-0.000014	0.000006	0.000004	0.000004	-0.000016	0.000004	0.000009	0.000004	-0.000011	0.000004	0.000004	0.000004	-0.000011	0.000004	0.000004	-0.000011	-0.000011	-0.000011	0.000004	-0.000016	-0.000014	0.000004	-0.000015	0.000004	-0.000014	-0.000015	0.000004	0.000004	-0.000015	-0.000015	0.000002	0.000042	-0.000015	0.000012	0.000004	0.000004	0.000004	-0.000015	-0.000015	0.000004	0.000004	-0.000015	0.000004	-0.000002	0.000004	0.000003	-0.000014	-0.000014	0.000004	0.000004	0.000004	-0.000014	-0.000016	0.000004	-0.000014	0.000004	-0.000015	0.000019	0.000004	0.000019	-0.000015	-0.000015	-0.000001	0.000004	0.000004	0.000004	0.000004	0.000005	0.000004	-0.000015	-0.000014	0.000004	0.000004	-0.000017	0.000009	0.000001	-0.000015	0.000004	0.000004	-0.000014	0.000003	0.000004	0.000009	-0.000015	0.000003	0.000004	-0.000015	0.000000	-0.000015	-0.000001	0.000004	-0.000014	0.000001	-0.000007	-0.000015	-0.000015	-0.000007	0.000003	0.000004	-0.000015	0.000004	0.000009	-0.000015	-0.000016	0.000002	0.000002	0.000004
-0.000702	0.000003	-0.002525	0.000005	-0.000005	-0.000001	0.000013	0.000010	-0.000013	-0.000018	-0.000024	-0.000015	0.000002	-0.000015	0.000005	-0.001505	-0.000008	0.000047	0.000013	-0.000196	-0.000005	-0.000000	-0.000021	0.000032	0.000009	-0.000004	0.000013	-0.000692	-0.000010	0.000488	0.000164	-0.000020	-0.000006	0.000008	-0.000010	0.000057	0.000015	0.000003	-0.000003	-0.000010	-0.000003	0.000011	0.000002	0.000003	-0.000013	0.000011	-0.000008	-0.000004	-0.000009	-0.000001	0.000153	0.000003	-0.000017	-0.000003	-0.000060	-0.000008	-0.000021	0.000011	0.000012	0.000007	0.000012	0.000006	0.000002	-0.000009	-0.000228	-0.000014	0.000008	-0.000010	-0.000017	0.000006	-0.000051	0.000006	0.000013	-0.000001	0.000011	0.000003	0.000017	-0.000018	0.000122	-0.000018	-0.000013	-0.000012	-0.000013	-0.000012	0.000214	-0.000264	-0.000009	0.000057	0.000017	-0.000002	-0.000003	-0.000409	0.000017	0.000050	-0.000004	-0.000005	-0.000016	-0.000017	-0.000193	0.000018	0.000006	0.000003	-0.000017	-0.000217	-0.000076	-0.000001	0.000034	-0.000014	0.000013	-0.000223	-0.000016	0.000012	-0.000025	0.000458	-0.000045	-0.000046	-0.000010	-0.000021	-0.000125	0.000009	0.000012	0.000024	0.000009	0.000009	0.000007	0.000005	-0.000021	0.000051	0.000005	0.000027	-0.000006	0.000148	-0.000004	0.000018	-0.000003	-0.000013	0.000003	0.000040	0.000236	0.000137	-0.000009	-0.000488	-0.000486	-0.000000	0.000022	0.000049	0.000019	-0.000001	-0.000030	-0.000488	0.000119	0.000014	0.000030	0.000207	-0.000115	0.000006	0.000001	0.000007	-0.000001	-0.000013	-0.000043	0.000090	0.000206	0.000020	-0.000060	-0.000009	-0.000021	0.000704	-0.000059	-0.000186	-0.000271	0.000151	0.000077	0.000010	-0.000041	0.000135	0.000010	0.000013	-0.000050	-0.000050	0.000047	-0.000007	-0.000001	0.000010	0.000005	-0.000009	-0.000059	-0.000011	0.000009	-0.000043	0.000031	-0.000004	-0.000473	-0.000075	0.000000	0.000002	-0.000022	-0.000001	-0.000020	0.000040	-0.000022	-0.000016	0.000054	-0.000134	0.000014	-0.000105	0.000030	0.000428	0.000104	0.000004	-0.000011	0.000014	0.000012	0.000081	0.000398	0.000641	0.000407	0.002022	0.000454	0.000106	-0.000430	0.000185	0.000085	0.000629	-0.000694	0.000157	0.000049	-0.001930	-0.000085	-0.000642	-0.000436	-0.000003	-0.000006	-0.001753	-0.000106	-0.000218	-0.000003	-0.000062	0.002022	-0.000007	-0.000103	0.002022	0.000065	0.000036	0.002022	-0.002382	-0.002382	-0.000076	0.000195	-0.002382	-0.000014	-0.001667	-0.000597	-0.000872	-0.002382	-0.000698	-0.000173	0.000689	0.000140	-0.002382	-0.001989	-0.002382	-0.002382	-0.000478	-0.002382	-0.001989	0.000131	-0.002382	-0.000134	-0.000525	-0.000325	-0.002382	-0.001667	0.000638	-0.002382	0.000030	0.000316	-0.000525	-0.001667	-0.000148	-0.001726	-0.001297	-0.002382	-0.000974	0.000031	0.000131	-0.000011	-0.000910	-0.000974	-0.000974	-0.000066	-0.000030	-0.000150	0.000111	0.000111	0.000111	-0.000718	0.000502	0.000143	0.000163	-0.000974	-0.000974	-0.000974	0.000538	-0.000974	-0.000974	0.000031	-0.000974	0.000160	0.000050	0.000007	-0.000718	-0.000974	0.000511	-0.000002	0.000103	-0.000974	0.000014	-0.000974	-0.000974	-0.000974	0.000003	-0.000718	0.000131	0.000143	-0.000974	0.000142	-0.000718	-0.000171	0.000038	-0.000391	-0.000391	-0.000307	-0.000405	-0.000171	0.000204	-0.000307	-0.000058	-0.000127	0.000057	-0.000405	-0.000092	-0.000053	-0.000002	-0.000113	-0.000004	-0.000094	-0.000171	-0.000136	-0.000217	-0.000027	0.000204	-0.000186	0.000039	-0.000152	-0.000023	0.000189	0.000016	0.000204	0.000057	0.000204	-0.000113	-0.000053	-0.000215	-0.000405	-0.000340	-0.000053	0.000007	-0.000217	0.000017	-0.000198	-0.000127	-0.000186	-0.000171	-0.000171	-0.000405	0.000187	-0.000405	0.000171	0.000204	-0.000217	-0.000405	-0.000405	-0.000054	-0.000136	-0.000060	-0.000053	-0.000054	0.000171	-0.000136	-0.000405	-0.000156	-0.000136	-0.000405	-0.000405	0.000036	0.000036	-0.000044	0.000036	0.000036	0.000036	-0.000044	0.000036	-0.000012	0.000036	0.000036	0.000036	0.000036	0.000036	0.000036	0.000036	-0.000044	0.000036	-0.000012	0.000036	0.000036	-0.000250	0.000036	-0.000006	-0.000006	0.000036	0.000036	0.000036	0.000036	0.000036	0.000036	-0.000092	0.000002	0.000061	0.000036	0.000036	0.000036	0.000036	0.000036	0.000036	0.000036	0.000036	0.000036	0.000036	-0.000099	0.000057	-0.000012	0.000036	0.000036	0.000036	-0.000099	0.000036	0.000061	0.000036	0.000036	0.000036	0.000036	-0.000099	0.000036	0.000036	-0.000099	-0.000099	0.000036	0.000036	-0.000001	0.000036	0.000036	-0.000012	0.000042	-0.000012	-0.000012	0.000036	-0.000099	0.000104	0.000036	0.000036	0.000042	0.000036	-0.000012	-0.000006	0.000037	0.000009	0.000037	0.000037	0.000043	0.000037	0.000037	0.000042	0.000037	0.000041	-0.000007	-0.000043	0.000037	0.000043	0.000037	0.000037	-0.000007	-0.000007	0.000037	0.000037	-0.000007	0.000037	-0.000007	0.000037	0.000040	0.000037	0.000037	0.000037	-0.000018	-0.000091	0.000037	0.000037	0.000037	-0.000063	0.000037	0.000037	-0.000088	-0.000010	0.000037	0.000037	0.000037	-0.000001	-0.000123	0.000015	-0.000091	0.000063	0.000037	-0.000093	-0.000065	-0.000065	-0.000043	0.000037	0.000037	0.000015	0.000037	-0.000063	0.000042	0.000005	0.000037	0.000037	0.000037	0.000037	0.000037	0.000037	0.000037	0.000037	0.000063	-0.000043	-0.000017	0.000037	0.000003	0.000037	-0.000065	-0.000043	0.000037	0.000037	0.000004	0.000037	0.000012	0.000037	0.000037	0.000037	0.000037	0.000010	0.000037	0.000012	-0.000098	-0.000000	0.000012	-0.000011	0.000017	0.000037	0.000064	0.000037	0.000037	-0.000043	0.000037	0.000037	0.000039	0.000037	0.000012	0.000037	0.000037	0.000037	0.000037	0.000000	0.000037	0.000037	0.000037	-0.000043	0.000037	0.000037	0.000274	0.000055	-0.000011	-0.000091	0.000037	0.000037	-0.000065	-0.000011	-0.000011	0.000042	-0.000011	0.000004	-0.000013	0.000014	0.000037	-0.000001	-0.000006	-0.000000	-0.000000	-0.000006	0.000018	-0.000000	-0.000000	-0.000001	-0.000000	0.000018	0.000018	0.000018	0.000017	0.000018	-0.000003	-0.000000	0.000018	0.000018	0.000009	0.000017	-0.000010	0.000018	-0.000006	0.000009	-0.000006	-0.000000	0.000017	0.000009	-0.000000	0.000009	0.000009	-0.000009	0.000018	-0.000001	0.000006	0.000009	0.000018	0.000018	0.000018	0.000009	0.000018	0.000017	0.000014	-0.000000	0.000009	-0.000001	0.000018	0.000018	-0.000000	0.000018	0.000018	-0.000000	-0.000000	-0.000000	0.000018	-0.000000	-0.000000	0.000017	0.000018	0.000018	0.000018	0.000018	0.000018	0.000018	0.000018	0.000018	0.000018	0.000018	-0.000005	0.000018	0.000012	0.000018	0.000018	0.000018	-0.000016	-0.000092	0.000018	-0.000001	0.000018	-0.000001	0.000018	-0.000001	0.000018	0.000018	-0.000003	-0.000000	-0.000000	-0.000003	-0.000000	-0.000000	-0.000000	0.000002	0.000018	0.000018	0.000018	0.000018	-0.000000	-0.000007	-0.000000	0.000017	-0.000002	0.000018	-0.000003	-0.000005	0.000018	0.000018	0.000014	-0.000000	0.000018	0.000018	0.000018	0.000003	0.000018	0.000018	0.000018	-0.000006	0.000018	0.000018	0.000018	-0.000006	0.000018	0.000018	-0.000006	-0.000006	-0.000006	0.000018	-0.000002	-0.000000	-0.000016	-0.000001	0.000018	-0.000001	-0.000002	0.000018	0.000018	-0.000002	-0.000002	0.000016	-0.000059	-0.000002	0.000015	0.000018	0.000018	0.000018	-0.000002	-0.000002	0.000018	0.000018	-0.000002	0.000017	-0.000003	0.000018	0.000017	-0.000000	-0.000000	0.000018	0.000018	0.000014	-0.000000	-0.000002	0.000018	-0.000001	0.000018	-0.000001	0.000018	0.000018	0.000018	0.000002	-0.000001	-0.000002	0.000018	0.000018	0.000018	0.000018	0.000017	0.000018	-0.000005	0.000005	0.000018	-0.000016	-0.000003	0.000009	0.000015	-0.000002	0.000018	0.000018	-0.000000	-0.000006	0.000018	0.000018	-0.000002	0.000016	0.000018	-0.000002	-0.000009	-0.000002	-0.000003	0.000018	-0.000000	0.000015	-0.000002	-0.000002	-0.000002	-0.000001	0.000016	0.000018	-0.000002	0.000018	0.000018	-0.000002	-0.000003	0.000015	0.000016	0.000018
-0.000002	-0.000021	0.000003	0.000014	-0.000023	-0.001541	-0.000018	-0.000024	-0.000013	-0.000023	-0.000008	0.000034	-0.000012	0.000012	-0.000018	-0.000015	0.000043	-0.000223	-0.000020	-0.000034	-0.000011	-0.000020	0.000001	0.000182	-0.000335	0.000000	-0.003823	-0.000529	-0.001070	0.000263	-0.000413	0.000003	-0.001813	-0.001948	0.000009	-0.000008	-0.000013	-0.000014	0.000017	-0.000014	-0.000004	-0.004502	-0.000013	-0.001771	-0.000009	0.000015	-0.005274	-0.005262	-0.000017	0.000027	0.000144	-0.000005	-0.003924	0.000014	0.000068	0.000002	-0.000013	-0.004400	-0.000012	0.000002	-0.003720	-0.003343	0.000003	-0.004697	-0.000226	-0.000007	-0.000012	-0.000165	-0.000880	-0.000001	-0.000020	0.000022	-0.000005	-0.000001	0.000014	0.000001	-0.000001	0.000010	0.000092	-0.000011	0.000001	-0.000006	-0.000000	0.000003	0.000034	-0.000449	-0.000005	0.000058	-0.000004	-0.000013	-0.000004	-0.000349	-0.001065	-0.000149	0.000011	0.000006	0.000008	-0.000015	-0.000020	-0.000017	0.000013	0.000008	0.000047	0.000154	0.000201	-0.000012	0.000002	0.000015	-0.000001	0.000197	-0.000000	0.000017	0.000049	-0.000103	-0.000007	0.000015	0.000053	0.000054	0.000577	-0.000010	-0.000042	0.000002	-0.000014	-0.000002	-0.000010	0.000007	-0.000052	-0.000001	0.000004	-0.000035	-0.000002	0.000174	0.000008	0.000017	0.000155	-0.000023	-0.000013	0.000026	-0.000172	0.000166	-0.000005	-0.000570	0.000129	0.000007	0.000030	0.000637	0.000007	0.000014	-0.000042	0.000432	-0.000057	0.000006	-0.000051	0.000065	-0.000205	-0.000048	-0.000014	0.000058	-0.000002	0.000008	0.000027	-0.000004	-0.000024	0.000060	-0.000016	-0.000019	-0.000025	0.000545	-0.000022	0.000090	-0.000181	-0.000009	0.000174	0.000010	-0.000033	0.000187	0.000046	0.000011	0.000032	-0.000053	-0.000059	0.000012	-0.000013	0.000021	0.000018	-0.000007	0.000063	-0.000002	0.000008	0.000027	-0.000016	0.000006	0.000158	-0.000018	0.000007	0.000008	-0.000044	-0.001138	-0.000025	-0.000061	-0.000044	0.000004	0.000024	-0.000044	-0.000019	-0.000097	0.000022	0.000698	0.000135	-0.000507	0.000007	-0.000009	0.000017	0.000141	0.000102	0.000049	-0.000248	0.000137	0.000712	-0.000069	0.000637	-0.000494	0.000080	0.000324	-0.000629	0.000216	0.000026	0.001137	0.000030	0.000139	-0.000371	-0.000002	0.000001	-0.001041	-0.000607	-0.000067	0.000137	-0.000002	0.001991	-0.000012	0.000104	-0.002073	-0.000141	-0.000121	0.000137	0.002332	0.000602	0.000016	-0.000145	0.002184	0.000483	-0.000746	-0.001571	0.000579	0.000602	-0.000504	0.000030	-0.000605	0.000054	0.002332	0.002308	0.000602	0.002308	0.000376	0.000602	-0.000576	0.000403	-0.000428	0.000045	0.000600	0.000045	0.000738	0.001453	0.000712	0.000602	0.000047	-0.000554	-0.000112	0.001317	-0.000027	0.000738	0.000602	0.000098	0.000413	0.000464	0.000045	-0.000039	0.002264	-0.002306	0.000413	0.001266	-0.000060	-0.000003	0.000413	0.001845	0.002008	0.000413	-0.000142	-0.000080	-0.000020	0.000610	0.002396	-0.000872	-0.000411	0.002396	0.000413	-0.000200	0.001839	-0.000047	-0.000042	-0.000016	0.001930	0.000427	0.000365	0.000001	0.000065	0.002199	-0.000010	0.000709	0.000413	0.001930	-0.000187	0.002199	0.000045	0.000160	-0.000872	0.000160	0.000413	-0.000040	0.000130	0.000494	-0.000564	0.000616	0.000616	-0.000088	-0.000104	-0.002036	-0.000170	0.000102	-0.000169	-0.000846	-0.000106	0.000072	-0.000181	-0.000185	-0.000126	0.000076	-0.000088	0.001982	0.000106	-0.000122	0.000093	-0.000006	0.000007	0.000173	0.000077	-0.000003	-0.000006	0.000093	0.000041	-0.000104	0.000067	-0.000112	0.000173	-0.002036	-0.001972	0.000114	-0.000098	0.000012	0.000006	0.000093	0.000102	0.000012	-0.000088	-0.000088	0.000616	0.000173	-0.002036	-0.000004	0.000093	0.000106	-0.002036	-0.002019	-0.000193	-0.000183	-0.000176	-0.000193	-0.000193	0.000090	-0.000126	-0.002036	-0.000170	0.000094	-0.002036	-0.002019	-0.000082	0.000126	-0.000071	-0.000128	0.000126	-0.000082	-0.000038	-0.000135	0.000004	0.000048	0.000179	-0.000135	0.000126	0.000131	-0.000135	-0.000135	-0.000071	-0.000082	0.000004	0.000126	0.000126	-0.000654	0.000126	-0.000141	-0.000141	-0.000176	-0.000135	-0.000135	0.000126	0.000048	-0.000130	-0.000173	0.000004	0.000043	-0.000173	-0.000128	-0.000135	0.000159	-0.000086	-0.000128	-0.000135	0.000126	0.000126	0.000179	-0.000135	-0.000013	0.000179	0.000126	-0.000173	-0.000135	-0.000135	0.000126	0.000011	0.000149	-0.000135	-0.000135	-0.000135	0.000126	-0.000135	-0.000097	-0.000135	-0.000005	0.000126	-0.000135	0.000009	-0.000086	-0.000102	-0.000102	-0.000129	-0.000082	-0.000135	0.000126	-0.000135	-0.000214	0.000126	-0.000173	-0.000129	-0.000103	0.000126	0.000091	0.000127	0.000008	0.000127	-0.000135	0.000132	-0.000135	-0.000135	-0.000053	-0.000101	0.000044	0.000006	0.000191	-0.000127	0.000132	-0.000135	0.000127	0.000006	0.000017	-0.000135	-0.000135	0.000017	-0.000082	0.000006	0.000127	-0.000055	0.000150	0.000049	0.000127	0.000015	-0.000172	0.000132	-0.000135	0.000150	-0.000000	-0.000135	0.000127	-0.000135	-0.000002	0.000127	0.000001	0.000127	0.000001	-0.000135	0.000011	0.000127	0.000045	-0.000127	-0.000129	0.000016	-0.000057	0.000191	-0.000135	0.000127	0.000014	-0.000135	-0.000060	-0.000047	0.000011	-0.000172	-0.000172	-0.000135	0.000127	-0.000172	0.000160	-0.000181	-0.000101	0.000045	-0.000070	-0.000018	0.000127	0.000016	0.000127	0.000016	-0.000070	0.000049	-0.000135	-0.000007	-0.000181	-0.000015	0.000127	-0.000135	0.000127	0.000127	0.000009	0.000127	0.000013	0.000127	0.000013	0.000013	-0.000129	0.000012	-0.000004	0.000028	-0.000103	-0.000101	-0.000070	-0.000135	-0.000135	-0.000001	0.000127	-0.000015	-0.000129	0.000127	0.000127	-0.000004	-0.000000	0.000127	-0.000082	0.000102	0.000191	0.000132	-0.000135	0.000102	-0.000070	0.000127	-0.000135	-0.000048	-0.000135	0.000016	-0.000172	0.000127	-0.000053	-0.000135	0.000013	0.000013	0.000006	-0.000129	-0.000002	0.000016	-0.000001	-0.000001	0.000016	0.000004	-0.000001	-0.000001	-0.000002	-0.000001	-0.000018	0.000017	0.000004	-0.000002	0.000004	-0.000003	-0.000001	0.000000	0.000004	0.000017	-0.000011	-0.000006	0.000004	0.000018	0.000004	0.000016	-0.000001	-0.000010	0.000017	-0.000001	0.000004	0.000017	0.000013	0.000004	0.000003	0.000014	0.000017	0.000017	0.000004	0.000004	0.000004	0.000004	-0.000010	0.000004	-0.000001	0.000004	-0.000001	0.000004	0.000004	-0.000001	-0.000017	0.000004	-0.000001	-0.000001	-0.000001	0.000004	-0.000001	-0.000001	-0.000010	0.000017	0.000017	0.000004	0.000004	-0.000010	0.000004	0.000017	0.000004	0.000004	-0.000017	-0.000001	0.000004	0.000017	0.000004	0.000017	0.000004	-0.000003	0.000106	0.000000	-0.000004	0.000004	0.000011	0.000002	-0.000002	0.000004	0.000003	-0.000003	-0.000003	-0.000001	-0.000007	-0.000001	-0.000001	-0.000001	-0.000002	-0.000017	0.000003	0.000004	-0.000018	-0.000001	0.000002	0.000008	-0.000002	-0.000005	0.000004	0.000003	-0.000002	0.000004	0.000004	0.000004	0.000008	0.000000	0.000017	0.000017	0.000002	-0.000010	0.000004	0.000017	-0.000006	0.000004	-0.000018	0.000004	-0.000006	0.000004	0.000017	-0.000006	-0.000006	-0.000006	0.000003	0.000002	-0.000001	-0.000016	0.000001	0.000004	-0.000002	-0.000001	0.000001	0.000017	-0.000001	-0.000001	0.000015	0.000055	-0.000001	0.000014	0.000004	0.000004	-0.000005	-0.000001	-0.000001	0.000004	0.000004	-0.000001	-0.000010	-0.000004	0.000017	-0.000001	0.000008	0.000008	0.000003	-0.000005	0.000017	0.000000	0.000002	0.000004	-0.000001	0.000004	-0.000002	0.000004	0.000017	0.000004	-0.000002	-0.000002	-0.000002	0.000004	0.000017	0.000004	0.000017	-0.000010	0.000004	-0.000002	0.000004	-0.000017	-0.000003	0.000002	0.000017	0.000003	-0.000001	-0.000018	0.000004	-0.000001	0.000016	0.000001	0.000017	-0.000001	0.000002	0.000017	-0.000001	0.000017	-0.000001	-0.000002	0.000004	-0.000001	0.000021	-0.000009	-0.000001	-0.000001	0.000011	-0.000001	0.000004	-0.000001	0.000017	0.000004	-0.000001	-0.000004	0.000012	0.000015	0.000004
-0.000009	-0.000009	-0.000268	-0.000004	0.000005	-0.000016	0.000012	0.000001	-0.000000	-0.000012	-0.000002	-0.000015	0.000007	0.000010	0.000015	0.000001	-0.000056	0.000112	-0.000014	-0.000229	-0.000005	0.000004	-0.000003	-0.000211	-0.000007	-0.000011	-0.000015	-0.000136	0.000015	-0.000578	0.000443	-0.000002	0.000017	-0.000013	-0.000003	0.000038	-0.000006	-0.000003	-0.000016	-0.000007	0.000012	0.000005	-0.000018	0.000016	-0.000047	0.000002	-0.000006	-0.001162	0.000012	-0.000111	0.000079	0.000000	-0.000175	-0.000006	-0.000192	-0.000007	-0.000020	-0.000247	0.000003	-0.000020	0.000007	0.000015	0.000009	0.000005	0.000034	0.000008	0.000014	-0.000005	-0.000001	0.000001	0.000046	-0.000000	-0.000014	-0.000006	0.000011	-0.000012	0.000001	-0.000008	0.000068	0.000012	0.000030	-0.000019	0.000003	-0.000003	-0.000517	0.000003	-0.000007	0.000056	-0.000000	-0.000014	-0.000003	0.000229	0.000018	-0.000208	0.000015	-0.000000	0.000012	0.000017	0.000204	-0.000006	0.000013	-0.000013	-0.000059	0.000129	-0.000175	-0.000003	-0.000002	0.000015	0.000001	-0.000139	-0.000015	-0.000016	0.000038	-0.000471	0.000035	0.000025	0.000033	0.000043	0.000035	-0.000005	-0.000013	-0.000011	-0.000011	0.000008	0.000036	-0.000004	-0.000090	-0.000005	0.000005	-0.000033	0.000005	0.000191	0.000018	-0.000002	0.000203	0.000007	-0.000013	0.000045	0.000042	0.000117	0.000002	-0.000048	-0.000326	0.000028	-0.000013	-0.000171	0.000015	0.000005	-0.000046	-0.000080	-0.000162	-0.000009	0.000062	0.000114	-0.000168	-0.000036	-0.000004	0.000060	0.000010	0.000008	0.000025	-0.000192	0.000008	-0.000063	-0.000063	-0.000002	-0.000014	0.000031	0.000020	0.000165	0.000109	-0.000184	-0.000141	0.000008	0.000023	-0.000158	0.000046	0.000002	-0.000053	-0.000034	0.000026	-0.000009	-0.000005	0.000009	0.000002	-0.000000	-0.000016	0.000008	-0.000019	0.000023	0.000058	-0.000010	0.000311	-0.000002	-0.000018	-0.000017	0.000024	-0.000005	0.000006	-0.000042	0.000024	0.000011	0.000046	0.000024	-0.000010	-0.000004	0.000046	0.000608	0.000657	-0.000114	0.000007	-0.000005	-0.000004	-0.000187	0.000243	-0.000097	0.000364	-0.000531	-0.000247	-0.000183	-0.000514	0.000533	0.000203	-0.000576	0.000084	0.000065	0.000052	-0.000531	-0.000108	-0.000612	-0.000258	0.000011	-0.000057	0.001797	-0.000061	-0.000393	-0.000069	0.000033	-0.000638	0.000018	-0.000377	-0.000638	-0.000092	0.000106	-0.000531	0.002447	-0.000207	0.000179	-0.000022	-0.000207	0.000145	-0.000207	0.000451	-0.000157	-0.000100	0.000067	-0.000032	-0.000058	0.000019	-0.000207	-0.000100	-0.000207	-0.000207	0.000608	-0.000100	0.000022	-0.000154	0.002228	-0.000067	0.000178	0.000097	-0.002080	-0.000207	-0.000107	-0.000207	0.000056	-0.000058	0.000178	-0.000207	-0.000065	-0.000207	-0.001973	-0.000207	0.001978	0.000219	-0.000122	-0.000185	0.001111	0.001111	0.001111	0.001978	-0.000204	0.000219	0.001111	-0.000403	0.001111	0.001111	0.000219	-0.000063	-0.000092	0.001111	0.001111	0.001111	-0.000295	0.001111	0.001111	0.000255	0.001111	-0.000165	-0.000092	-0.000017	0.001111	0.001111	-0.000321	0.000004	-0.000063	0.001111	0.000010	0.001111	0.001111	0.001111	-0.000137	0.001111	0.000203	-0.000063	0.002415	-0.000063	0.001143	-0.000044	0.000069	0.000190	0.000190	0.001634	0.001634	-0.000179	0.000198	0.001634	-0.000129	-0.000137	-0.000011	0.001634	-0.000129	-0.000008	-0.000113	-0.000018	-0.000066	0.000214	-0.000209	0.010964	0.000057	-0.000137	0.000198	-0.000158	-0.000025	0.000182	-0.000093	0.000149	0.000001	0.000198	-0.000011	0.000198	0.000012	-0.000011	0.000182	0.001634	0.001670	-0.000007	0.000122	-0.000192	0.000002	0.000198	-0.000101	0.000179	-0.000179	-0.000179	0.001634	0.000214	0.001634	0.000166	0.000198	0.000057	0.001634	0.001634	-0.000007	-0.000066	-0.000150	-0.000011	-0.000011	0.000009	-0.000059	0.001666	-0.000163	-0.000066	0.001666	-0.001922	0.000178	0.000019	0.000019	0.000199	0.000022	0.000019	0.000019	0.000178	0.000019	0.000199	0.000019	0.000019	0.000019	0.000019	0.000019	0.000114	0.000019	0.000019	-0.000017	0.000019	0.000114	0.000338	0.000019	0.000031	0.000031	0.000178	0.000019	0.000019	0.000019	-0.000080	0.000178	0.000019	0.000007	0.000060	0.000019	0.000199	0.000019	0.000019	-0.000194	0.000199	0.000178	0.000022	0.000019	0.000019	0.000022	0.000026	0.000022	0.000019	0.000019	0.000019	0.000019	0.000019	0.000064	0.000178	0.000019	0.000181	0.000019	0.000019	0.000019	0.000019	0.000022	0.000019	0.000019	0.000019	-0.000004	0.000019	0.000019	0.000019	0.000019	0.000019	0.000019	0.000019	0.000019	0.000031	0.000019	0.000019	0.000019	0.000019	0.000178	0.000031	0.000020	-0.000009	0.000020	0.000178	0.000020	0.000020	0.000020	0.000025	0.000020	0.000024	0.000009	0.000020	0.000200	0.000020	0.000020	0.000178	0.000009	0.000009	0.000178	0.000020	0.000009	0.000023	0.000009	0.000020	0.000071	0.000020	0.000200	0.000020	0.000004	0.000020	0.000020	0.000020	0.000020	-0.000065	0.000178	0.000020	0.000020	0.000012	0.000020	0.000020	0.000020	0.019777	0.000020	0.000016	0.000020	0.000062	0.000200	0.000020	0.000064	0.000065	0.000020	0.000020	0.000020	-0.000001	0.000020	0.000804	0.000024	-0.000015	0.000020	0.000020	0.000020	0.000020	0.000020	0.000020	0.000020	0.000178	0.000062	0.000020	0.000005	0.000020	0.000064	0.000020	0.000064	0.000020	-0.000079	0.000020	-0.000004	0.000020	-0.000004	0.000020	0.000020	0.000020	0.000020	-0.000005	0.000023	-0.000004	0.000020	-0.000017	-0.000004	0.000020	0.000015	0.000020	0.000062	0.000020	0.000020	0.000023	0.000020	0.000114	0.000022	0.000020	-0.000001	0.000020	0.000023	0.000178	0.000178	-0.000017	0.000020	0.000020	0.000200	0.000020	0.000020	0.000023	-0.000150	0.000020	0.000178	0.000020	0.000020	0.000020	0.000064	0.000020	0.000020	0.000025	0.000178	0.000016	-0.000015	0.000005	0.000020	-0.000019	-0.000009	-0.000018	-0.000018	-0.000009	0.000000	-0.000018	-0.000018	-0.000019	-0.000018	0.000002	0.000000	0.000000	0.000004	0.000000	0.000019	-0.000018	0.000002	0.000000	0.000000	-0.000001	-0.000013	0.000000	-0.000009	0.000000	-0.000009	-0.000018	0.000000	0.000000	-0.000018	0.000000	0.000000	-0.000011	0.000000	-0.000019	-0.000002	0.000000	0.000000	0.000000	0.000000	0.000000	0.000000	0.000000	0.000000	-0.000018	0.000000	-0.000018	0.000000	0.000002	-0.000014	0.000000	0.000000	-0.000016	-0.000018	-0.000018	0.000000	-0.000018	-0.000018	0.000001	0.000000	0.000000	0.000000	0.000000	0.000000	0.000000	0.000000	0.000000	0.000000	0.000000	-0.000018	-0.000004	0.000000	0.000000	0.000000	0.000000	0.000000	-0.000088	0.000002	-0.000019	0.000000	0.000001	0.000000	-0.000019	0.000000	0.000000	0.000019	-0.000018	-0.000002	0.000019	-0.000018	-0.000018	-0.000018	-0.000019	0.000000	0.000000	0.000000	0.000000	-0.000018	0.000008	-0.000018	0.000002	0.000019	0.000000	0.000019	-0.000019	0.000000	0.000000	0.000000	-0.000018	0.000002	0.000000	0.000000	0.000019	0.000000	0.000000	0.000000	-0.000013	0.000000	0.000000	0.000000	-0.000013	0.000000	0.000000	-0.000013	-0.000013	-0.000013	0.000000	-0.000017	-0.000002	0.000000	-0.000003	0.000000	-0.000019	-0.000016	0.000000	0.000000	-0.000016	-0.000016	-0.000002	-0.000061	-0.000016	-0.000002	0.000000	0.000000	0.000000	-0.000016	-0.000016	0.000000	0.000000	-0.000016	0.000000	-0.000018	0.000000	0.000002	-0.000018	-0.000018	0.000000	0.000000	0.000000	-0.000018	-0.000017	0.000000	-0.000018	0.000000	-0.000019	0.000000	0.000000	0.000000	-0.000019	-0.000019	-0.000019	0.000000	0.000000	0.000000	0.000000	0.000001	0.000000	-0.000019	-0.000019	0.000000	0.000000	0.000018	0.000000	-0.000003	-0.000016	0.000000	0.000000	-0.000018	-0.000009	0.000000	0.000000	-0.000016	-0.000001	0.000000	-0.000016	-0.000011	-0.000016	0.000018	0.000000	-0.000018	-0.000003	0.000019	-0.000016	-0.000016	-0.000016	0.000001	-0.000004	-0.000016	0.000000	0.000000	-0.000016	0.000019	-0.000002	0.000001	0.000000
0.982188	0.978840	-0.000029	0.973135	0.000001	1.113447	0.742088	0.736556	-0.000014	-0.000001	0.000008	-0.000070	0.000004	0.748952	-0.000015	-0.002760	1.105599	0.000000	1.248848	1.341686	0.000009	-0.001873	-0.002999	0.000162	0.911088	-0.000011	-0.002290	0.923710	-0.001381	0.000408	0.000247	0.000006	-0.002060	-0.002137	0.000016	0.000034	0.000010	-0.001783	-0.000017	-0.000016	0.000001	-0.000886	2.439174	0.000016	0.000023	-0.000000	-0.002895	2.447861	0.000006	0.000009	0.000019	-0.000004	-0.002419	-0.002819	2.627512	0.000004	-0.000600	-0.002060	0.000015	-0.000019	0.000008	-0.000010	0.000013	-0.000007	-0.000105	2.891379	-0.000006	0.000004	-0.000011	-0.000011	3.001547	-0.000018	-0.000013	-0.000013	0.000001	-0.000001	0.000000	3.103532	0.000015	0.000006	-0.000011	-0.000016	-0.000016	-0.000021	0.000445	-0.000035	-0.000017	-0.000033	-0.000014	0.000013	0.000000	-0.000022	0.000016	0.000113	-0.000020	-0.000005	-0.000000	-0.000004	0.000135	0.000009	-0.000017	0.000014	0.000005	3.262424	-0.000017	-0.000007	0.000005	-0.000011	-0.000002	0.000046	0.000003	0.000002	0.000014	-0.000285	0.000019	0.000019	-0.000016	0.000047	0.000404	0.000006	3.284152	0.000044	0.000011	0.000018	-0.000064	-0.000005	-0.000086	0.000018	-0.000005	-0.000007	-0.000002	0.000138	1.022021	-0.000001	-0.000074	-0.000066	-0.000018	0.000010	-0.000679	-0.000152	-0.000014	0.000662	0.000425	-0.000016	0.000143	0.000544	-0.000009	0.000025	0.000052	0.000662	0.000005	-0.000009	0.000028	0.000585	0.000146	0.000057	0.000005	0.000051	-0.000004	0.000005	-0.000023	0.000155	-0.000100	0.000059	0.000057	0.000018	1.072406	0.000513	-0.000017	0.000119	-0.000361	-0.000008	-0.000131	-0.000010	-0.000007	-0.000101	0.000046	0.000013	-0.000045	0.000043	-0.000050	-0.000017	0.000009	0.000014	0.000062	0.000011	-0.000017	0.000011	-0.000007	-0.000007	0.000049	0.000017	-0.000551	0.000062	-0.000012	0.000004	3.504714	-0.000015	-0.000005	-0.000009	3.504714	0.000003	0.000037	3.504714	-0.000007	-0.000132	-0.000001	0.000367	0.000414	-0.000002	0.000002	0.000017	-0.000005	-0.000022	-0.000613	0.000564	0.000692	-0.001937	-0.000123	-0.000069	-0.000358	0.000614	-0.000095	-0.000418	0.000168	-0.000025	-0.000006	-0.001937	-0.000002	-0.000477	0.000408	-0.000014	-0.000058	-0.001937	0.000063	-0.000241	-0.000176	0.000035	-0.001937	-0.000005	-0.000299	-0.001937	-0.000004	0.000176	-0.001937	-0.001512	-0.001512	-0.000171	0.000116	-0.001512	0.000186	-0.001511	-0.000848	-0.000004	-0.001512	0.000140	-0.000218	0.000092	0.000063	-0.001512	-0.001512	-0.001512	-0.001512	0.000367	-0.001512	-0.001512	0.000323	-0.001512	0.000152	0.000323	0.000140	-0.001512	-0.001512	0.000044	-0.001512	0.000065	0.000092	0.000323	-0.001512	0.000197	-0.001512	-0.001512	-0.001512	-0.000173	0.000392	0.000049	0.000003	-0.000173	-0.000173	-0.000173	-0.000173	-0.000014	0.000392	-0.000173	-0.000173	-0.000173	-0.000173	0.000392	-0.000114	-0.000067	-0.000173	-0.000173	-0.000173	-0.000122	-0.000173	-0.000173	0.000392	-0.000173	0.000209	-0.000067	-0.000000	-0.000173	-0.000173	-0.000147	3.394852	-0.000114	-0.000173	3.395739	-0.000173	-0.000173	-0.000173	0.000035	-0.000173	0.000049	-0.000114	-0.000173	-0.000114	-0.000173	0.000070	0.000173	0.000444	0.000444	0.000430	0.000430	0.000070	0.000012	0.000430	0.000084	0.000111	0.000112	0.000430	0.000084	0.000112	-0.000212	0.000124	0.000099	0.000027	0.000070	0.000099	0.000027	0.000111	0.000012	0.000056	-0.000040	-0.000004	0.000206	-0.000035	3.399121	0.000012	0.000112	0.000012	0.000124	0.000112	-0.000004	0.000430	0.000430	0.000112	-0.000204	0.000027	3.399431	0.000012	0.000111	0.000056	0.000070	0.000070	0.000430	-0.000004	0.000430	-0.000019	0.000012	0.000027	0.000430	0.000430	0.000112	0.000099	0.000098	0.000112	0.000112	-0.000019	0.000099	0.000430	0.000084	0.000099	0.000430	0.000430	-0.000179	-0.000179	-0.000179	-0.000179	-0.000179	-0.000179	-0.000179	-0.000179	-0.000000	-0.000179	-0.000179	-0.000179	-0.000179	-0.000179	-0.000179	-0.000179	-0.000179	-0.000179	-0.000000	-0.000179	-0.000179	0.000593	-0.000179	0.000216	0.000216	-0.000179	-0.000179	-0.000179	-0.000179	-0.000179	-0.000179	-0.000179	0.000019	-0.000004	-0.000179	-0.000179	-0.000179	-0.000179	-0.000179	-0.000179	-0.000179	-0.000179	-0.000179	-0.000179	-0.000179	-0.000008	-0.000179	-0.000179	-0.000179	-0.000179	-0.000179	-0.000179	-0.000004	-0.000179	-0.000179	-0.000179	-0.000179	-0.000179	-0.000179	-0.000179	-0.000179	-0.000179	-0.000179	-0.000179	0.000010	-0.000179	-0.000179	-0.000179	-0.000179	-0.000179	-0.000179	-0.000179	-0.000179	0.000216	-0.000179	-0.000179	-0.000179	-0.000179	-0.000179	0.000216	-0.000178	0.000003	-0.000178	-0.000178	-0.000178	-0.000178	-0.000178	-0.000042	-0.000178	-0.000043	3.402771	-0.000178	-0.000178	-0.000178	-0.000178	-0.000178	3.402771	3.402771	-0.000178	-0.000178	3.402771	-0.000178	3.402771	-0.000178	-0.000044	-0.000178	-0.000178	-0.000178	0.000016	-0.000178	-0.000178	-0.000178	-0.000178	0.000003	-0.000178	-0.000178	-0.000178	-0.000016	-0.000178	-0.000178	-0.000178	-0.000002	-0.000178	0.000003	-0.000178	-0.000002	-0.000178	-0.000178	0.000001	0.000001	-0.000178	-0.000178	-0.000178	0.000001	-0.000178	0.000003	-0.000043	-0.000000	-0.000178	-0.000178	-0.000178	-0.000178	-0.000178	-0.000178	-0.000178	-0.000178	-0.000002	-0.000178	0.000017	-0.000178	0.000001	-0.000178	0.000001	-0.000178	-0.000178	-0.000178	-0.000015	-0.000178	0.000007	-0.000178	-0.000178	-0.000178	-0.000178	0.000004	-0.000178	0.000007	-0.000178	-0.000005	0.000007	-0.000178	0.000004	-0.000178	-0.000001	-0.000178	-0.000178	-0.000178	-0.000178	-0.000178	-0.000045	-0.000178	0.000007	-0.000178	-0.000178	-0.000178	-0.000178	-0.000005	-0.000178	-0.000178	-0.000178	-0.000178	-0.000178	-0.000178	0.000095	-0.000178	-0.000178	-0.000178	-0.000178	-0.000178	0.000001	-0.000178	-0.000178	-0.000042	-0.000178	0.000005	0.000000	0.000017	-0.000178	-0.000008	0.000007	-0.000007	-0.000007	0.000007	0.000011	-0.000007	-0.000007	-0.000008	-0.000007	0.000011	0.000011	0.000011	0.000011	0.000011	-0.000009	-0.000007	0.000013	0.000011	0.000011	0.000010	0.000004	0.000011	0.000007	0.000011	0.000007	-0.000007	0.000011	0.000011	-0.000007	0.000011	0.000011	0.000005	0.000011	-0.000008	0.000009	0.000011	0.000011	0.000011	0.000011	0.000011	0.000011	0.000011	0.000011	-0.000007	0.000011	-0.000007	0.000011	0.000011	-0.000007	0.000011	0.000011	-0.000007	-0.000007	-0.000007	0.000011	-0.000007	-0.000007	0.000012	0.000011	0.000011	0.000011	0.000011	0.000011	0.000011	0.000011	0.000011	0.000011	0.000011	-0.000007	0.000011	0.000011	0.000011	0.000011	0.000011	0.000011	0.000161	0.000013	-0.000008	0.000011	-0.000007	0.000011	-0.000008	0.000011	0.000011	-0.000009	-0.000007	-0.000007	-0.000009	-0.000007	-0.000007	-0.000007	-0.000008	0.000011	0.000011	0.000011	0.000011	-0.000007	-0.000006	-0.000007	0.000011	-0.000009	0.000011	-0.000009	-0.000008	0.000011	0.000011	0.000011	-0.000007	0.000013	0.000011	0.000011	-0.000009	0.000011	0.000011	0.000011	3.337634	0.000011	0.000011	0.000011	3.337634	0.000011	0.000011	3.337634	3.337634	3.337634	0.000011	-0.000009	-0.000007	0.000011	-0.000008	0.000011	-0.000007	-0.000008	0.000011	0.000011	-0.000008	-0.000008	0.000009	0.000008	-0.000008	0.000009	0.000011	0.000011	0.000011	-0.000008	-0.000008	0.000011	0.000011	-0.000008	0.000011	-0.000010	0.000011	0.000010	-0.000007	-0.000007	0.000011	0.000011	0.000011	-0.000007	-0.000009	0.000011	-0.000007	0.000011	-0.000008	0.000011	0.000011	0.000011	-0.000008	-0.000008	-0.000008	0.000011	0.000011	0.000011	0.000011	0.000012	0.000011	-0.000008	-0.000007	0.000011	0.000011	-0.000010	0.000011	0.000009	-0.000008	0.000011	0.000011	-0.000007	0.000007	0.000011	0.000011	-0.000008	0.000010	0.000011	-0.000008	0.000005	-0.000008	-0.000010	0.000011	-0.000007	0.000009	-0.000009	-0.000008	-0.000008	-0.000007	0.000010	0.000011	-0.000008	0.000011	0.000011	-0.000008	-0.000009	0.000009	0.000010	0.000011
-0.000013	0.000006	0.000005	-0.000004	0.000008	0.000002	0.000006	0.000016	0.000014	-0.000008	0.000003	-0.000039	0.000004	-0.000012	0.000005	-0.000017	0.000021	-0.000126	0.000013	0.000178	0.000008	-0.000017	-0.000018	0.000068	-0.000006	-0.000006	0.000012	0.002797	0.000011	0.000438	0.008781	0.000010	-0.000017	0.000015	0.000004	0.000027	-0.000002	0.000003	-0.000001	0.000001	0.000004	-0.000020	-0.000028	0.000010	-0.000062	-0.000020	-0.000475	-0.002166	0.000020	0.000376	0.000047	0.000008	-0.000331	-0.000008	0.011296	0.012608	0.016321	-0.000930	0.002221	0.015197	0.000009	-0.000016	0.000017	0.000015	0.000030	0.000016	0.000011	0.000039	0.000016	0.000002	0.000063	-0.000016	-0.000000	0.000001	-0.000000	-0.000015	0.000012	-0.000004	-0.000220	-0.000019	-0.000017	0.000020	-0.000003	-0.000023	-0.000363	0.000178	0.000001	0.000025	-0.000011	0.000002	0.000018	0.000435	0.000000	0.000200	0.024099	0.013922	-0.000000	-0.000018	-0.000202	0.000007	-0.000001	-0.000000	0.023457	0.000112	0.000073	-0.000007	0.000043	-0.000010	-0.000001	0.000749	0.021710	0.000015	-0.000038	-0.000176	-0.000002	0.000001	-0.000042	0.011600	0.000364	0.000004	0.000013	0.000059	0.000012	0.000017	0.000051	0.000011	0.000062	0.000006	0.000017	0.000003	-0.000008	-0.000226	-0.000007	0.000002	-0.000015	-0.000057	0.000020	-0.000026	0.000448	-0.000031	0.000006	0.000332	0.000589	0.000001	-0.000033	0.000282	-0.000002	0.000038	-0.000057	0.000332	-0.000066	0.000006	0.000051	-0.000310	0.000159	0.000031	0.000021	0.000046	0.000004	0.000017	-0.000036	-0.000163	-0.000044	0.000052	-0.000036	0.000014	0.000004	0.000459	0.000000	0.000014	0.000726	0.000063	-0.000199	-0.000005	0.000015	-0.000100	-0.000051	0.000006	0.000015	0.000062	0.000052	-0.000000	-0.000020	-0.000019	0.000048	0.000019	0.000000	-0.000014	-0.000014	-0.000014	-0.000051	0.000001	0.000218	-0.000082	-0.000009	-0.000016	0.000066	0.000018	-0.000014	-0.000036	0.000066	0.000014	-0.000015	0.000066	-0.000018	-0.000212	0.000064	0.000212	0.000157	-0.000182	0.000009	-0.000009	0.000011	-0.000186	-0.000095	0.000510	0.000004	-0.000031	0.000485	-0.000149	-0.000468	0.000384	-0.000092	0.000028	0.000533	-0.000025	-0.000025	-0.001956	0.000074	0.000159	-0.000690	-0.000011	-0.000051	-0.000031	0.000430	-0.000266	-0.000171	0.000001	-0.000031	-0.000001	0.000145	-0.000031	-0.000178	-0.000049	-0.002267	-0.000132	-0.001845	0.000052	0.000072	0.000390	-0.000179	-0.001708	0.001045	0.000438	0.000390	-0.000486	-0.000195	0.000532	-0.000089	-0.001845	0.000784	-0.001845	0.000390	-0.000659	-0.001845	0.000262	-0.000046	0.002437	0.000070	-0.000702	-0.000486	-0.000132	0.001105	0.000486	0.000390	-0.000025	0.000532	-0.000702	0.001105	0.000052	0.001046	-0.000132	0.000390	0.001698	-0.000218	0.000021	0.000177	0.001762	-0.000063	0.001698	-0.000547	0.000223	0.000038	0.001698	0.001698	0.001698	0.001954	0.000016	-0.000178	-0.000162	0.001698	0.001698	0.001698	0.000289	0.001698	0.001698	0.000125	0.001698	-0.000023	0.000137	0.000001	0.001954	0.001698	0.000265	-0.000016	-0.000026	0.001698	-0.000013	0.001369	0.001369	0.001698	0.000094	0.001954	0.000172	-0.000178	0.002033	-0.000178	0.001954	-0.000019	-0.000159	0.000795	0.000653	0.002240	0.002240	-0.000019	-0.000076	0.002240	-0.000005	-0.000028	-0.000157	0.002240	0.000010	0.000114	-0.000073	-0.000015	-0.000173	0.000014	-0.000019	0.000035	-0.000061	0.000072	-0.000076	-0.000033	0.000005	-0.000091	0.000208	-0.000087	0.000002	-0.000076	-0.000157	-0.000076	-0.000015	0.000114	-0.000056	0.002240	0.002304	0.000114	0.000128	-0.000061	0.000004	-0.000041	-0.000129	0.000033	-0.000019	-0.000019	0.002240	-0.000091	0.002240	-0.000107	-0.000076	-0.000061	0.002240	0.002240	0.000114	0.000035	0.000181	0.000114	0.000114	-0.000107	0.000035	0.002240	-0.000005	0.000035	0.002240	-0.000158	0.000123	0.000006	-0.000073	0.000124	0.000124	0.000049	-0.000073	0.000123	0.000012	0.000124	0.000006	0.000124	0.000124	0.000124	0.000124	0.000124	-0.000073	0.000049	0.000017	0.000124	0.000124	0.000441	0.000124	0.000156	0.000156	0.000123	0.000124	0.000049	0.000124	0.000123	0.000123	0.000142	0.000021	0.000022	0.000124	0.000124	0.000006	0.000124	0.000124	0.000124	0.000123	0.000124	0.000124	0.000124	0.000135	0.000018	0.000124	0.000124	0.000124	0.000124	0.000135	0.000124	0.000022	0.000123	0.000124	0.000123	0.000124	0.000135	0.000124	0.000124	0.000135	0.000135	0.000124	0.000049	-0.000012	0.000124	0.000124	0.000124	0.000130	0.000124	0.000049	0.000006	0.000135	-0.000115	0.000124	0.000124	0.000012	0.000124	0.000123	0.000156	0.000125	0.000004	0.000125	0.000124	0.000131	0.000125	0.000125	-0.000001	0.000125	-0.000003	-0.000025	-0.000072	0.000125	0.000131	0.000125	0.000124	-0.000025	-0.000025	0.000124	0.000125	-0.000025	0.000125	-0.000025	0.000125	0.000003	0.000125	0.000125	0.000125	0.000017	0.000143	0.000125	0.000125	0.000125	0.000028	0.000124	0.000125	0.000125	-0.000015	0.000125	0.000125	0.000049	-0.000004	0.000125	-0.000002	0.000143	0.000042	0.000125	0.000141	0.000026	0.000027	-0.000072	0.000125	0.000125	0.000011	0.000125	0.000029	-0.000002	0.000006	0.000125	0.000125	0.000125	-0.000005	0.000125	0.000125	0.000125	0.000124	0.000024	-0.000072	0.000018	-0.000005	-0.000066	0.000125	0.000026	-0.000072	0.000124	0.000125	0.000002	0.000006	-0.000018	0.000006	0.000125	0.000125	0.000049	0.000005	0.000125	-0.000018	0.000135	-0.000004	-0.000018	0.000125	-0.000010	0.000125	0.000025	0.000125	0.000125	-0.000072	0.000125	0.000125	-0.000005	0.000125	-0.000018	0.000006	0.000125	0.000124	0.000124	-0.000014	0.000125	0.000049	0.000125	-0.000072	0.000125	0.000125	-0.000057	-0.000072	0.000124	0.000143	0.000125	0.000125	0.000026	0.000125	0.000125	-0.000001	0.000124	-0.000009	-0.000014	0.000018	0.000125	-0.000007	-0.000008	-0.000006	-0.000006	-0.000008	0.000012	-0.000006	-0.000006	-0.000007	-0.000006	0.000012	0.000012	0.000012	0.000012	0.000012	-0.000008	-0.000006	0.000002	0.000012	0.000012	0.000011	-0.000011	0.000001	-0.000008	0.000012	-0.000008	-0.000006	0.000000	0.000012	-0.000006	0.000012	0.000012	-0.000010	0.000012	-0.000007	0.000010	0.000012	0.000012	0.000012	0.000012	0.000012	0.000012	0.000000	-0.000016	-0.000006	0.000012	-0.000002	0.000012	0.000012	-0.000006	0.000012	0.000012	-0.000006	-0.000006	-0.000006	0.000012	-0.000006	-0.000006	0.000001	0.000012	-0.000007	0.000012	0.000012	-0.000007	0.000012	-0.000007	0.000012	-0.000007	-0.000007	0.000004	-0.000009	0.000012	0.000012	0.000012	0.000012	0.000018	0.000009	0.000002	-0.000007	0.000012	-0.000009	0.000012	-0.000007	0.000012	0.000012	-0.000008	-0.000006	-0.000013	-0.000008	-0.000006	-0.000006	-0.000006	0.000011	0.000012	0.000012	0.000012	0.000012	-0.000006	0.000019	-0.000006	0.000012	-0.000008	0.000012	-0.000008	0.000004	0.000012	0.000012	-0.000016	-0.000006	0.000002	-0.000007	0.000012	-0.000002	0.000012	0.000012	0.000012	0.000026	0.000012	0.000012	0.000012	0.000026	0.000012	0.000012	0.000026	0.000026	0.000026	0.000012	0.000000	-0.000013	0.000018	-0.000011	0.000012	-0.000006	-0.000007	0.000012	0.000012	-0.000007	-0.000007	0.000010	0.000032	-0.000007	0.000010	0.000012	0.000012	0.000012	-0.000007	-0.000007	0.000012	0.000012	-0.000007	0.000000	-0.000009	0.000001	0.000011	-0.000006	-0.000006	0.000012	0.000012	-0.000016	-0.000006	0.000000	0.000012	-0.000007	0.000012	-0.000007	0.000012	0.000012	0.000012	0.000011	-0.000007	-0.000007	0.000012	0.000001	0.000012	0.000012	0.000001	0.000012	0.000004	-0.000001	0.000012	0.000018	-0.000009	0.000012	0.000010	-0.000007	0.000012	0.000012	-0.000006	-0.000008	0.000012	0.000012	-0.000007	0.000011	0.000001	-0.000007	-0.000010	-0.000007	-0.000009	0.000012	-0.000006	0.000009	-0.000008	-0.000007	-0.000007	-0.000006	0.000011	-0.000009	-0.000007	0.000012	0.000012	-0.000007	0.000008	0.000010	0.000011	0.000012
0.000000	0.000001	-0.000008	-0.000001	-0.000008	0.031708	0.000003	-0.000004	0.000003	-0.000016	-0.000007	0.000034	0.000007	-0.002215	0.000005	-0.000012	0.000011	-0.000121	0.000014	0.000163	0.000010	0.030896	0.033294	-0.000152	0.021603	-0.000020	-0.000007	0.000624	0.035932	0.000521	0.000350	-0.000040	0.037845	0.037922	0.000003	0.005233	-0.000001	-0.000008	-0.000008	0.000003	-0.000003	0.000257	-0.000019	0.017807	0.000066	0.000009	-0.000017	0.020775	-0.000016	0.000011	-0.000115	-0.000018	0.022806	-0.000017	0.000082	-0.000014	-0.000008	0.021494	0.000014	-0.000000	-0.000000	0.000005	-0.000011	-0.000004	0.000186	0.000010	0.000006	0.000005	0.000003	0.000020	-0.000189	0.000008	0.000018	-0.000006	0.000002	0.000017	0.000011	-0.000004	-0.000214	-0.000015	0.000049	-0.000004	0.000035	0.000029	0.000370	-0.000111	-0.000013	-0.000050	0.000006	0.000012	-0.000010	-0.000431	0.000017	0.000059	-0.000008	-0.000007	-0.000014	-0.000016	-0.000018	0.000015	-0.000003	0.000016	0.000034	0.000083	0.000024	0.000008	0.000001	0.000020	-0.000005	0.000173	0.000005	0.000001	0.000031	0.000224	0.000050	-0.000017	-0.000056	-0.000007	0.000087	-0.000010	0.000057	-0.000042	0.000003	-0.000015	0.000029	-0.000004	0.000000	-0.000066	-0.000010	-0.000001	-0.000019	-0.000223	0.000007	0.000012	0.000013	-0.000023	0.000016	-0.000015	0.000651	0.000171	-0.000018	0.000539	0.000330	-0.000022	-0.000186	0.000426	0.000012	0.000018	0.000044	-0.000441	-0.000112	-0.000003	-0.000006	-0.000019	-0.000145	0.000016	-0.000016	-0.000037	0.000013	-0.000002	-0.000019	0.000069	0.000030	0.000044	0.000013	0.000017	0.000002	0.000512	-0.000046	-0.000177	0.000648	-0.000018	-0.000150	0.000004	0.000056	-0.000115	0.000003	-0.000001	0.000055	0.000025	0.000025	-0.000018	0.000001	-0.000001	-0.000049	-0.000015	-0.000064	0.000015	-0.000017	-0.000048	0.000013	0.000000	0.000484	0.000042	0.000008	-0.000011	0.000055	-0.000011	-0.000052	-0.000024	-0.000118	-0.000008	-0.000036	-0.000118	0.000013	0.000130	0.000011	0.000220	0.000283	-0.000160	-0.000017	0.000005	-0.000013	-0.000190	0.000680	0.000410	0.000534	0.002531	0.000217	-0.000195	0.000183	-0.000485	0.000014	-0.000109	0.000496	0.000080	0.000022	-0.001625	-0.000123	0.000373	-0.000730	0.000004	-0.000023	0.001262	0.000389	0.000528	0.000095	0.000049	0.001299	0.000000	0.000006	0.001262	-0.000146	0.000046	0.002531	-0.001229	-0.001229	-0.000051	-0.000068	-0.001229	-0.000061	-0.001229	-0.000606	0.000276	-0.001229	0.000414	0.000050	-0.000113	-0.000054	-0.001229	-0.001192	-0.001229	-0.001192	0.000591	-0.001933	-0.001229	-0.000683	-0.001229	-0.000113	0.000589	0.000414	-0.001229	0.001658	0.000360	-0.001229	-0.000053	0.000368	0.000589	-0.001933	-0.000070	0.000965	-0.001229	-0.001192	-0.000025	-0.000483	0.000044	0.000031	-0.000025	-0.000025	-0.000025	-0.000025	0.000015	-0.000483	-0.000025	-0.000025	-0.000025	-0.000025	-0.000465	0.000122	0.000073	-0.000025	-0.000025	0.002435	0.000041	0.002418	0.002418	-0.000483	-0.000007	-0.000170	0.000073	0.000019	-0.000025	0.002435	-0.000001	0.000003	0.000122	-0.000025	0.000008	-0.000025	-0.000025	-0.000025	0.000031	-0.000025	0.000044	0.000122	-0.000007	0.000122	-0.000025	-0.000013	0.000182	0.000461	0.000461	0.000449	0.000449	0.000229	0.000027	0.000449	0.000225	-0.000173	-0.000127	0.000466	0.000097	-0.000126	-0.000204	0.000135	-0.000190	-0.000066	0.000083	-0.000190	0.000041	0.000140	0.000027	0.000070	-0.000023	0.000012	0.000215	-0.000019	0.000001	0.000197	-0.000127	0.000027	0.000153	-0.000126	0.000012	0.000449	0.001820	-0.000127	-0.000196	0.000041	0.000002	0.000027	0.000123	0.000070	0.000083	0.000083	0.000449	0.000012	-0.000445	0.000014	0.000027	0.000041	0.000449	0.000449	-0.000127	-0.000190	0.000110	-0.000127	-0.000127	-0.000003	-0.000190	0.000449	0.000097	-0.000101	0.000449	0.000449	-0.000173	-0.000173	-0.000173	-0.000173	0.000061	-0.000173	-0.000173	-0.000173	-0.000003	-0.000173	-0.000173	-0.000173	-0.000173	-0.000173	-0.000173	-0.000173	-0.000173	-0.000173	-0.000003	-0.000173	-0.000173	0.000604	-0.000173	-0.000091	-0.000091	-0.000173	-0.000173	0.000160	-0.000173	-0.000173	-0.000173	-0.000109	0.000006	0.000058	-0.000171	-0.000173	0.000061	-0.000173	-0.000173	-0.000173	-0.000173	-0.000173	-0.000173	-0.000173	-0.000173	0.000054	-0.000173	0.000061	-0.000171	-0.000173	-0.000173	-0.000173	0.000058	-0.000171	-0.000173	-0.000173	-0.000173	-0.000173	-0.000173	-0.000173	-0.000173	-0.000173	-0.000173	-0.000173	0.000007	-0.000173	-0.000173	-0.000173	-0.000173	-0.000173	-0.000173	-0.000173	-0.000173	-0.000091	-0.000173	0.000062	-0.000173	-0.000173	-0.000173	-0.000090	-0.000172	0.000008	-0.000172	-0.000172	-0.000172	-0.000120	-0.000172	-0.000036	-0.000172	-0.000037	-0.000015	-0.000172	-0.000172	-0.000172	-0.000172	-0.000172	-0.000015	-0.000015	-0.000172	-0.000172	-0.000015	-0.000172	-0.000015	-0.000172	0.000005	-0.000171	-0.000172	-0.000172	-0.000017	-0.000108	-0.000172	-0.000172	-0.000171	0.000040	-0.000172	-0.000172	0.000214	-0.000010	-0.000172	-0.000172	-0.000172	0.000009	-0.000172	-0.000015	-0.000110	0.000059	-0.000172	-0.000172	0.000062	0.000064	-0.000172	-0.000172	-0.000172	-0.000019	-0.000120	0.000064	-0.000037	-0.000018	0.000063	0.000063	-0.000172	-0.000172	-0.000171	-0.000172	-0.000172	-0.000172	0.000059	-0.000172	0.000009	-0.000172	0.000062	-0.000172	0.000062	-0.000172	-0.000172	-0.000172	-0.000003	-0.000172	0.000012	0.000185	-0.000172	-0.000172	-0.000172	0.000009	-0.000172	0.000012	-0.000172	0.000011	0.000012	-0.000172	-0.000014	-0.000172	0.000060	-0.000172	-0.000172	-0.000172	-0.000172	-0.000172	-0.000039	-0.000172	0.000012	-0.000172	-0.000172	-0.000172	-0.000172	0.000001	-0.000172	-0.000172	-0.000172	-0.000172	-0.000172	-0.000172	0.000106	-0.000172	-0.000172	-0.000110	-0.000172	-0.000172	0.000062	-0.000171	-0.000172	-0.000051	-0.000172	-0.000013	-0.000018	-0.000017	-0.000172	-0.000003	-0.000013	-0.000002	-0.000002	-0.000013	0.000016	-0.000002	-0.000002	-0.000003	-0.000002	0.000016	0.000016	0.000016	0.000016	0.000016	-0.000004	-0.000002	0.000018	0.000016	0.000016	0.000017	-0.000016	0.000016	-0.000013	0.000016	-0.000013	-0.000002	0.000016	0.000016	-0.000002	0.000016	0.000016	-0.000015	0.000016	-0.000003	0.000014	0.000016	0.000004	0.000016	0.000016	0.000017	0.000016	0.000016	0.000016	-0.000002	0.000016	-0.000002	0.000016	0.000016	-0.000002	0.000016	0.000016	-0.000002	-0.000002	-0.000002	0.000016	-0.000002	-0.000002	0.000017	0.000016	0.000016	0.000016	0.000016	0.000016	-0.000011	0.000016	0.000016	0.000016	0.000016	-0.000002	0.000016	0.000016	0.000016	0.000182	0.000016	0.000016	0.000169	0.000018	-0.000003	0.000016	-0.000002	-0.000010	-0.000003	0.000016	0.000016	-0.000002	-0.000001	-0.000002	-0.000004	-0.000002	-0.000002	-0.000002	-0.000002	0.000016	0.000016	0.000016	0.000016	-0.000002	0.000000	-0.000002	0.000016	-0.000002	0.000016	-0.000003	-0.000003	0.000016	0.000016	0.000016	-0.000002	0.000018	0.000016	0.000004	-0.000004	0.000016	0.000016	0.000016	-0.000001	0.000016	0.000016	0.000016	-0.000001	0.000016	0.000016	-0.000001	-0.000001	-0.000001	0.000016	-0.000004	-0.000002	0.000016	-0.000003	0.000016	-0.000002	-0.000003	0.000017	-0.000011	-0.000003	-0.000003	0.000015	-0.000064	-0.000003	0.000014	-0.000011	0.000016	0.000016	-0.000003	-0.000003	0.000016	0.000016	-0.000003	0.000016	-0.000004	0.000016	0.000015	-0.000002	-0.000002	0.000016	0.000016	-0.000011	-0.000001	-0.000004	0.000016	-0.000002	0.000016	-0.000002	0.000016	0.000016	0.000016	-0.000000	-0.000003	-0.000003	0.000016	0.000016	0.000016	0.000016	0.000017	0.000016	-0.000003	-0.000002	0.000016	0.000016	-0.000005	0.000016	0.000015	-0.000003	0.000016	0.000016	-0.000002	-0.000013	0.000004	0.000016	-0.000003	0.000017	0.000016	-0.000003	-0.000015	-0.000003	-0.000004	0.000016	-0.000002	0.000014	-0.000004	-0.000003	-0.000003	-0.000002	0.000017	0.000016	-0.000003	0.000004	0.000016	-0.000003	-0.000004	0.000014	0.000015	0.000017
-0.000378	-0.000006	-0.000026	-0.000021	0.000010	-0.000017	-0.000007	-0.000005	0.000004	-0.000003	-0.000014	-0.000019	-0.000001	0.000017	-0.000010	0.000008	-0.000043	-0.000103	-0.000004	-0.000041	-0.000008	-0.000011	0.000014	-0.000013	0.000003	-0.000007	0.038727	0.066048	-0.000000	-0.000192	0.015814	0.000013	-0.000013	-0.000011	0.000013	0.000020	0.000010	-0.000002	-0.000011	-0.000010	-0.000004	-0.000002	0.000002	0.000003	0.000027	0.025060	0.000002	0.000002	0.000012	0.001750	-0.000200	0.000018	-0.000018	-0.000005	0.015398	0.016614	0.082726	-0.000018	0.006519	0.018312	0.000013	-0.000005	0.016279	0.000985	-0.000037	0.000008	0.004810	0.003001	0.015681	0.001106	0.000134	0.000008	-0.000004	0.000003	-0.000015	0.000002	-0.000002	0.000009	-0.000194	-0.000001	0.000054	0.000000	0.003900	0.000033	0.004006	0.000014	0.000001	0.000025	0.000017	0.029140	-0.000008	0.000206	0.000001	-0.000144	0.022323	0.082061	-0.000013	-0.000009	0.025791	0.000008	-0.000018	-0.000015	0.028921	-0.000144	0.022846	-0.000004	0.000009	0.000014	0.000009	0.013732	0.085655	-0.000003	0.028745	0.000485	-0.000021	0.028301	0.005730	0.008059	0.000663	0.000000	0.000042	-0.000062	0.016767	-0.000011	0.035766	-0.000004	-0.000010	0.026311	-0.000004	0.000036	-0.000002	0.000184	-0.000007	0.000000	-0.000163	-0.000058	-0.000020	0.000048	0.000072	0.000181	0.000000	0.000326	-0.000611	-0.000022	0.000023	-0.000088	-0.000020	-0.000027	-0.000008	-0.000040	0.000172	0.000018	0.000009	0.000274	-0.000099	0.000003	0.000059	-0.000056	-0.000009	-0.000013	-0.000001	-0.000134	-0.000125	-0.000048	-0.000065	-0.000006	0.000015	-0.000507	-0.000046	0.000156	0.000137	-0.000037	0.000202	0.015765	0.000005	-0.000054	-0.000046	0.000013	0.000058	0.000060	0.000076	-0.000002	-0.000019	0.000018	-0.000011	0.019121	-0.000036	-0.000002	0.092871	-0.000006	-0.000044	-0.000019	0.033020	0.000049	0.000018	-0.000002	0.000007	0.000018	0.000030	0.000021	0.000007	-0.000018	0.001584	0.000007	-0.000017	-0.000206	0.000022	0.000341	0.000373	-0.000121	-0.000011	-0.000013	0.000018	-0.000145	0.000705	-0.000564	0.000250	0.002364	0.015154	-0.000114	0.000077	-0.000549	-0.000035	-0.000980	-0.000443	-0.000174	0.000033	-0.001498	0.000004	0.000399	0.042348	-0.000012	-0.000017	0.002364	-0.000547	0.000187	-0.000113	-0.000040	0.002364	0.000016	-0.000712	0.002365	-0.000215	-0.000048	0.002364	-0.002095	-0.002095	0.000042	0.000058	-0.000730	-0.000419	0.020868	0.001560	0.000518	-0.002095	-0.000454	0.000042	-0.000499	-0.000122	-0.002095	-0.000730	-0.002095	-0.000730	-0.000238	-0.002095	-0.002095	-0.000280	0.001871	0.000029	-0.000280	-0.000589	-0.002095	-0.001696	-0.000544	-0.000730	-0.000056	-0.000499	-0.000280	-0.001380	0.000008	-0.002095	-0.002095	-0.000730	-0.000863	0.000136	-0.000212	0.000125	-0.000799	-0.000527	-0.002187	0.000136	0.000107	0.000136	-0.000863	-0.000863	-0.000863	-0.000863	-0.000323	-0.000206	-0.000184	-0.000863	-0.000863	-0.000863	0.000643	-0.000863	-0.000863	0.000136	-0.000334	0.000007	-0.000206	-0.000003	-0.000863	-0.000863	0.000619	0.000000	0.087929	-0.000863	0.000005	-0.000863	0.002237	-0.000863	0.000189	-0.000863	-0.000212	-0.000207	-0.000863	-0.000207	-0.000863	-0.000142	-0.000044	-0.000605	-0.000208	-0.000359	-0.002142	-0.000142	-0.000198	-0.000359	-0.000129	-0.000103	0.000008	-0.001225	-0.000065	0.000084	0.000007	-0.000091	-0.000039	-0.000119	-0.000142	-0.000039	-0.000184	-0.000039	-0.000198	-0.000156	-0.000015	-0.000213	-0.000164	0.000194	-0.000004	-0.000198	0.000008	-0.000198	-0.000091	0.000034	-0.000213	-0.001225	-0.000294	0.000034	0.000015	-0.000184	-0.000003	-0.000198	-0.000103	-0.000156	-0.000142	-0.000142	-0.001225	-0.000213	-0.000359	0.000209	-0.000198	-0.000184	-0.000359	-0.000359	0.000034	-0.000039	-0.000026	0.000034	0.000034	0.000209	-0.000039	-0.000359	-0.000129	-0.000039	-0.000359	-0.001225	0.000040	0.000040	-0.000037	0.000040	0.000040	0.000139	-0.000037	0.000040	-0.000014	0.000040	0.000040	-0.000023	-0.000023	0.000040	-0.000149	0.000040	-0.000037	0.000139	-0.000014	0.000040	0.000040	-0.000218	0.000040	0.000073	0.000073	0.000040	0.000040	0.000139	0.000040	0.000040	0.000040	0.000040	0.000008	-0.000050	0.000040	0.000040	0.000040	0.000040	0.000040	0.000040	0.000040	0.000040	0.000040	0.000040	0.000040	-0.000054	0.000040	0.000040	0.000040	0.000040	0.000040	0.000040	-0.000050	0.000040	0.000040	0.000040	0.000040	0.000040	0.000040	0.000040	0.000040	0.000040	-0.000149	0.000095	-0.000004	0.000040	0.000040	0.000040	0.000046	0.000040	-0.000070	0.000040	0.000040	0.000047	0.000040	0.000040	0.000046	-0.000042	0.000040	0.000072	0.000041	0.000011	0.000041	0.000041	0.000047	0.000041	0.000041	0.000046	0.000041	0.000044	-0.000004	-0.000037	0.000041	0.000047	0.000041	0.000041	-0.000004	-0.000004	0.000041	0.000041	-0.000004	0.000041	-0.000004	0.000041	0.000043	0.000041	0.000041	0.000041	-0.000014	0.000041	0.000041	0.000041	0.000041	-0.000044	0.000041	-0.000149	0.000041	-0.000007	0.000041	0.000041	0.000139	0.000014	0.000041	0.000007	0.000041	-0.000048	0.000041	0.000047	-0.000046	-0.000045	-0.000037	0.000041	0.000041	0.000010	0.000041	-0.000044	0.000045	-0.000017	0.000041	0.000041	0.000041	0.000041	0.000041	0.000041	0.000041	0.000041	-0.000050	-0.000037	-0.000014	0.000041	-0.000046	0.000041	-0.000046	-0.000037	0.000041	0.000041	0.000017	0.000041	0.000017	0.000041	0.000222	-0.000023	0.000139	0.000012	0.000041	0.000017	0.000041	0.000004	0.000017	0.000041	-0.000004	0.000041	-0.000048	-0.000041	0.000041	-0.000037	0.000041	0.000041	0.000043	0.000041	0.000017	0.000041	0.000041	0.000041	0.000041	0.000004	0.000041	0.000139	0.000041	-0.000037	0.000041	0.000041	0.000304	-0.000037	0.000041	0.000041	0.000041	0.000041	-0.000046	0.000041	0.000041	0.000046	-0.000023	0.048078	0.000006	-0.000014	0.000041	0.000000	0.000011	0.000001	0.000001	0.000011	0.000019	0.000001	0.000001	0.000000	0.000001	0.000019	-0.000010	0.000019	0.000019	0.000019	-0.000001	0.000001	-0.000017	0.000019	0.000019	0.000018	0.000008	0.000019	0.000011	0.000019	0.000011	0.000001	-0.000019	0.000019	0.000001	0.000019	0.000899	0.000009	0.000019	0.000000	0.000008	0.000019	0.000019	0.000019	0.000019	0.000019	0.000019	-0.000019	0.000019	0.000001	0.000019	0.000001	0.000019	0.000019	0.000001	0.000019	0.000019	0.000001	0.000001	0.000001	0.000019	0.000001	0.000001	-0.000018	0.000019	-0.000010	0.000019	0.000019	-0.000010	0.000019	-0.000010	0.000019	-0.000010	-0.000010	0.000001	0.000019	0.000019	0.000019	0.000019	0.000019	0.000012	-0.000070	-0.000017	0.000000	0.000019	0.000001	0.000019	-0.000009	0.000019	0.000019	-0.000001	0.000001	0.000001	-0.000001	0.000001	0.000001	0.000001	0.000000	0.000019	0.000019	0.000019	0.000019	0.000001	-0.000015	0.000001	0.000019	-0.000001	0.000019	-0.000001	0.000000	0.000019	0.000019	0.000019	0.000001	-0.000017	-0.000010	0.000019	0.000005	0.000019	0.000019	0.000019	0.000009	0.000019	0.000019	0.000019	0.000009	0.000019	0.000019	0.000009	0.000009	0.000009	0.000019	-0.000001	0.000001	0.000012	0.000000	0.000019	0.000001	0.000000	0.000019	0.000019	0.000000	0.000000	0.000018	-0.000040	0.000000	0.000017	0.000019	0.000019	0.000019	0.000000	0.000000	0.000019	0.000019	0.000000	-0.000019	-0.000001	0.000019	0.000018	0.000001	0.000001	0.000019	0.000019	0.000019	0.000001	-0.000001	0.000019	0.000001	0.000019	0.000000	-0.000010	0.000019	-0.000010	0.000000	0.000000	-0.000000	0.000019	0.000019	0.000019	0.000019	-0.000018	0.000019	0.000000	-0.000007	0.000019	0.000012	-0.000002	0.000019	-0.000016	0.000000	0.000019	0.000019	0.000001	0.049570	0.000019	0.000019	0.000000	0.000018	0.000019	0.000000	0.000009	0.000000	-0.000001	0.000019	0.000001	0.000017	-0.000001	0.000000	0.000000	0.000001	0.000018	0.000019	0.000000	0.000019	0.000019	0.000000	-0.000002	0.000008	0.000018	0.000019
